<?xml version="1.0"?>
<opencv_storage>
<opencv_ml_ann_mlp>
  <format>3</format>
  <layer_sizes>
    784 100 10</layer_sizes>
  <activation_function>SIGMOID_SYM</activation_function>
  <f_param1>0.10000000000000001</f_param1>
  <f_param2>0.10000000000000001</f_param2>
  <min_val>-0.94999999999999996</min_val>
  <max_val>0.94999999999999996</max_val>
  <min_val1>-0.97999999999999998</min_val1>
  <max_val1>0.97999999999999998</max_val1>
  <training_params>
    <train_method>BACKPROP</train_method>
    <dw_scale>0.001</dw_scale>
    <moment_scale>0.10000000000000001</moment_scale>
    <term_criteria>
      <epsilon>0.01</epsilon>
      <iterations>1000</iterations></term_criteria></training_params>
  <input_scale>
    1. 0. 1. 0. 1. 0. 1. 0. 1. 0. 1. 0. 1. 0. 1. 0. 1. 0. 1. 0. 1. 0. 1.
    0. 2.1038466639100939 -0.0044180779942111972 0.73465782237226585
    -0.0057548196085827489 1.1340324793763241 -0.0040825169257547667
    27.216779505031781 -0.0040825169257547667 1. 0. 1. 0. 1. 0. 1. 0. 1.
    0. 1. 0. 1. 0. 1. 0. 1. 0. 1. 0. 1. 0. 1. 0. 1. 0. 1. 0. 1. 0. 1. 0.
    15.309438471580373 -0.0040825169257547667 5.1378417543335395
    -0.0047096882748057442 0.94786496244496321 -0.0087993464013640752
    0.47730511152646854 -0.011590559124901078 0.33760533284073685
    -0.014758979800687546 0.30085576674119052 -0.019284854648110313
    0.20537012327968251 -0.024671797476665858 0.18086495511061523
    -0.02907102711811289 0.17563481948961016 -0.030592658308098594
    0.17563787008994008 -0.031164012749625037 0.16883284765585466
    -0.031962871942047548 0.17342828322169204 -0.030202535523057669
    0.16749403091669038 -0.03131021751269332 0.18472760188024673
    -0.028383396028899912 0.23092249674211657 -0.023119190632164905
    0.2690682168532551 -0.019166625980513538 0.31165625491435334
    -0.016772300785307448 0.51465024036334295 -0.010996360135763427
    0.82560602957106433 -0.0083248607981748976 1.239818931105509
    -0.004380693556572798 1. 0. 1. 0. 1. 0. 1. 0. 1. 0. 1. 0.
    3.8273596178950933 -0.0040825169257547667 7.7076371143579658
    -0.0053953459800505765 1.2262463813256379 -0.0085224123502131831
    2.1857209069202939 -0.01198503630627961 0.37480844479353959
    -0.017653477749775714 0.20022325818265649 -0.027710898932479657
    0.14013031729855807 -0.037020094324990732 0.10294031691548404
    -0.052151280221332807 0.077337564294725908 -0.067036200730668419
    0.06435014406982878 -0.083017048362084941 0.053134064659327226
    -0.099379297835572672 0.045528222999621615 -0.11518412777789271
    0.040333765593801335 -0.12913325615454091 0.038172050383375566
    -0.13839467726744728 0.037314415010388242 -0.1388836307617482
    0.038862636726537038 -0.13184343822661324 0.042965532185901718
    -0.12042952234827012 0.049839378548531522 -0.10189079484830869
    0.065388748483052359 -0.078604904363951955 0.089976498603427962
    -0.056995613040341439 0.13390326577294903 -0.039657683879755073
    0.2524744045946668 -0.023728386125155435 0.40004769536487894
    -0.014088346338433153 0.90704718335127554 -0.0078308406829326795 1.
    0. 1. 0. 1. 0. 1. 0. 1.6603229489473221 -0.0053683775349296749
    1.5163428875843565 -0.0088706058923684866 1.1709417775958955
    -0.01407081702744401 0.31744113434375015 -0.022146809806048971
    0.16587883755403252 -0.035180136797917733 0.10075751730349713
    -0.055023680199439789 0.068516103777253992 -0.079096132135524966
    0.048580266476534253 -0.10764901248535225 0.037687844665627961
    -0.13716993570650837 0.030729268372916497 -0.16710576141191991
    0.026462458803787101 -0.19600875548259125 0.023151210409567968
    -0.22449111368547134 0.020925208082991271 -0.24865599141752553
    0.019801368144819295 -0.26211797063462611 0.020007967342284324
    -0.26259690164666721 0.020980704578722208 -0.24785590321914444
    0.023255946689967451 -0.22194700322681937 0.027278164226132485
    -0.18721140499215855 0.03520563987129427 -0.1476401316462532
    0.047552439450484485 -0.10816436385538704 0.072393683818392299
    -0.076812111654108173 0.11396537993357475 -0.04707529960456195
    0.18633604677174664 -0.0302019675809206 0.54890432975324055
    -0.015241243556148311 1.8870427315559291 -0.0052837196483566011 1.
    0. 1. 0. 6.4460793564548942 -0.0040825169257547658
    1.4881961063114144 -0.0077634230212578776 1.0378574750912513
    -0.014893254767559455 0.29626314199892556 -0.023962750468679763
    0.12271782724507993 -0.050340898033052542 0.075503214617767808
    -0.078767470263075956 0.04802312266313203 -0.11618154027353761
    0.033763819709914628 -0.16124756197962478 0.025250311458977676
    -0.2119616353497665 0.020052094965084099 -0.26689873121059338
    0.01672090127109508 -0.32567801032750021 0.014433780328490018
    -0.39024154804428057 0.012838641258765621 -0.45207637577719822
    0.011935670058468253 -0.4993979837823585 0.011566812160518124
    -0.52342832397506245 0.011674165860786076 -0.51761889440708375
    0.01228626990234081 -0.48090241906897768 0.013504748722938009
    -0.42307969402109191 0.015561919052793203 -0.35674039490496118
    0.01912772770716617 -0.28368364842044325 0.025034828244085983
    -0.21683666135332635 0.034856099854641463 -0.15852438026891422
    0.050904882032675139 -0.10878458131852732 0.082190903785030009
    -0.070922530876102396 0.18750171775889582 -0.038953481864410604
    0.48068752630553679 -0.014252385154959166 2.8379498678091473
    -0.0057704980645452656 1. 0. 1. 0. 1.1536420576779074
    -0.011901740561710412 0.34806876020438438 -0.022050155958947753
    0.13108076953627013 -0.051838074992610297 0.061951416938616229
    -0.090659703547970996 0.038928522875927463 -0.13966710556553796
    0.02726717204403846 -0.19708212055276858 0.020310544526470912
    -0.26438472766459992 0.016058619090491534 -0.34073044164379185
    0.013413662972845386 -0.42253574910981878 0.011659149742615876
    -0.51540864854364965 0.010458320244453354 -0.61603532693124363
    0.0097011251647249417 -0.71598329682613437 0.0093313156332037895
    -0.7941204659817066 0.0092169012100847113 -0.83504925263841268
    0.0092684362963140459 -0.82418581131767721 0.0095139360324611212
    -0.7628392835027733 0.010108144176694272 -0.66655949828398464
    0.011171070003323126 -0.55625039790047115 0.013031960000588465
    -0.44764565402688039 0.016161069925254887 -0.34762461409223266
    0.021051996788279799 -0.26084090667243637 0.028664363472002463
    -0.19030605326636274 0.043799712526290821 -0.1310801296726393
    0.088715176669426937 -0.074846037383439853 0.22544219187530931
    -0.031930129109272974 1.7465783701487902 -0.0082089183396993146 1.
    0. 30.382652336798213 -0.0055701529284130054 0.56952462131221326
    -0.015661927086085863 0.16422848396732007 -0.036365660633163578
    0.070587879827199648 -0.079024307931213802 0.040514631513379903
    -0.13328908621586855 0.026780784428177353 -0.19915441070732662
    0.019322387991394883 -0.27542969146413893 0.01505260208965587
    -0.36333594608959097 0.012418851013265312 -0.46308053298899382
    0.010822571024019725 -0.57484518896921732 0.0098544086338043825
    -0.69880387280738732 0.0092830187890575854 -0.82877368352491809
    0.0090074868253702551 -0.95689204766999747 0.0089149207576242825
    -1.0564726393771116 0.0089019724135588046 -1.1047183078736826
    0.0089022737607425007 -1.0835076091183173 0.0089165573854273171
    -0.99895164574737372 0.009101703934828443 -0.87474762363395098
    0.0096395423414931299 -0.7245597345971897 0.010744575840055575
    -0.58060589820293118 0.012804502010278487 -0.45215876382959225
    0.0161644934985034 -0.33932343107123353 0.021755020593201647
    -0.24893037280300365 0.032098587832302343 -0.17293970156995084
    0.056103241780279242 -0.10410424039345649 0.12964213042516703
    -0.04831762200945975 0.48541314454218504 -0.014708018279628208
    5.2117237350060854 -0.0040825169257547667 0.67049033577396222
    -0.013231009292606188 0.2437506588941511 -0.026243820940936934
    0.099317704767939163 -0.059158590845022965 0.048869076680976266
    -0.1130048529170895 0.030097579331474431 -0.1784415250878012
    0.02074652402623324 -0.25800481011643789 0.015629562512516047
    -0.35091181161850776 0.012649151806693614 -0.45909822417438662
    0.010837898273378558 -0.58414555692950476 0.0098279264066316891
    -0.72495420680603806 0.0093051070721609456 -0.87563926623715083
    0.0090948880042541775 -1.0148029044892122 0.0090573545680194597
    -1.1321685662228851 0.009055410827462718 -1.2021883425077196
    0.0090808663884127377 -1.2295375038647796 0.0090723709836048102
    -1.2096976992530375 0.0090356182139097012 -1.14460982747982
    0.0090106171506072388 -1.02312554206095 0.0092054011907544645
    -0.86295358399973732 0.0098953953711339582 -0.69048023851396068
    0.011378785206741562 -0.53290132006238677 0.014125519371424632
    -0.39754744006276055 0.018925092601564067 -0.28768127889100548
    0.028009150098363078 -0.19700702540851978 0.046932781744196905
    -0.12122893967131874 0.1107164508143933 -0.056808610912865203
    0.48271828388700305 -0.015390667951263946 1.2357769628161059
    -0.0050254929821188302 0.34084327675239168 -0.017320519180300704
    0.13079811498430369 -0.043080539138663484 0.064712412758713506
    -0.085248896947691236 0.037207419379852932 -0.13945836882493945
    0.024858152431941404 -0.21088330755129384 0.017838905150873663
    -0.30001797729333762 0.013760719731315114 -0.40728152617562596
    0.011354928120847716 -0.5328884799506014 0.0099935311401737701
    -0.68062942536381499 0.0093252364895925095 -0.84198850255578495
    0.0090567574469155917 -0.98243825473033908 0.0090001864657767855
    -1.0749410206177445 0.0089792216175286245 -1.1079807253900844
    0.008993892431444753 -1.106590986674721 0.0090251680310060711
    -1.1041449232725029 0.0090281449405893929 -1.1080246799657834
    0.0090074291609982537 -1.1002043281838867 0.0089779656800706639
    -1.04378666939965 0.0090743768988995922 -0.91297850442442741
    0.009560399843463973 -0.73919131377694225 0.010794544642347401
    -0.57100550467303579 0.013318540978204832 -0.42367100161696558
    0.018229752003881883 -0.29819620669549857 0.027511175302463796
    -0.19768613533173737 0.046299027012198526 -0.12068381546044687
    0.11199645993336554 -0.053935628496243289 0.49683176133878221
    -0.01350554337905923 1.2135025916301894 -0.0059057126126002548
    0.26564179405804561 -0.021109667901146024 0.10349084381728776
    -0.052989036881848292 0.054134811331694038 -0.093078492356859194
    0.033829270306457576 -0.15039873374962087 0.023065104567247429
    -0.22619102328598756 0.01657468652069552 -0.32364534010158574
    0.012813608645905221 -0.44213121716537451 0.01068076534783056
    -0.58424747721514458 0.0095801693578614795 -0.74857559262355899
    0.0090918936977612066 -0.9004493323644629 0.0089727262193568576
    -0.99238770713310409 0.0089819519055079709 -0.99508844582905953
    0.0090820062361602442 -0.94955659857977437 0.009176479761200099
    -0.90890462620353851 0.0091956015418566493 -0.91393597102263968
    0.0091467019539129609 -0.95430483674302435 0.0090464398169267015
    -1.0030879428764543 0.0089980387824558083 -0.99948655135463493
    0.009092654033888186 -0.90150861177674246 0.0095622567025844003
    -0.73668151560828854 0.010769019356842361 -0.56758942145055025
    0.013360669430876521 -0.42017189920780101 0.018851421857897347
    -0.2901745954224208 0.030444269756015222 -0.18148235125157422
    0.055290631176703513 -0.10493977495234404 0.13419187001379709
    -0.047213172933187608 0.50079854522521305 -0.014130865617771429
    0.8659207780111875 -0.0057728051867412507 0.22961390400521112
    -0.022632277138113641 0.10095565869099236 -0.052803174684012043
    0.055061939830372622 -0.092205806740944821 0.0343783714089088
    -0.14745169983709391 0.023012820556852713 -0.22728458804171869
    0.016184974494829037 -0.33242831639121695 0.012441736626448881
    -0.46269615812556164 0.010366445817928003 -0.61903352143624946
    0.0094040119553180906 -0.78428268532505208 0.0090616285729332741
    -0.90820987918795304 0.0090276598486294709 -0.93137298385228173
    0.0092614461294292412 -0.86957693484385423 0.0096085890673250074
    -0.79705952732714902 0.0097127245345455509 -0.77141210191978882
    0.0095067723677463162 -0.80356009282996355 0.0093102427461099514
    -0.87393929706678419 0.0091123038468280335 -0.95157541370809595
    0.0090526943272145437 -0.96213106545131555 0.0091642554906533492
    -0.8634732589396078 0.0097610766420335414 -0.70132424639191082
    0.0111222506328632 -0.53739656439070949 0.013932455672998783
    -0.39677102693919941 0.02009329477040251 -0.2712226416933548
    0.034631988773663712 -0.15932446435323991 0.070653342057910351
    -0.081258408700802684 0.16657039989223177 -0.036950867042760079
    0.63381134461946831 -0.011873399189204707 1.1890742635516922
    -0.0070551739637400397 0.27187404253543629 -0.020771176849707331
    0.11215355577505325 -0.047203562399790323 0.064047150216850077
    -0.082003836232647606 0.037699984436756581 -0.13745728492178422
    0.023569637058332028 -0.22518195549159836 0.016017065431567844
    -0.3384923810805906 0.012117447090558515 -0.48293499702811588
    0.010115402446214745 -0.64828821904598688 0.0092857287761024532
    -0.80980531132096956 0.0090752699606343259 -0.89646046061893581
    0.0091895703573481244 -0.87178559265499089 0.0096099674381496681
    -0.78497609556634629 0.0099879206995551022 -0.73254173735263994
    0.0097307756351548563 -0.7409505594572422 0.0093907556905952812
    -0.80221046978473176 0.0092634071053515083 -0.90126281481954318
    0.009096570788039389 -0.97772292777300929 0.0090565166767232076
    -0.95554794253494879 0.0092655007477132657 -0.82490289881853818
    0.010100768352726762 -0.6559878351684103 0.011750607276521729
    -0.49936418652616171 0.014583948964667304 -0.36957330910853065
    0.020545306471433603 -0.25846440689370354 0.037518820030696919
    -0.14969571472681045 0.10108848101217496 -0.061111356387893508
    0.22499252054679278 -0.028011568808075701 1.1173591407938479
    -0.009125099649816424 1.3958819197838115 -0.0053043512951784838
    0.37172987183149653 -0.01623839990117254 0.1503041515639143
    -0.036378614816852721 0.078039041670625295 -0.068582010470840019
    0.041503882772181609 -0.12736849891403002 0.02353833323268496
    -0.22614335961635912 0.015462427079906763 -0.35220290631899825
    0.011648493961269058 -0.50758351264543122 0.0098511889908257204
    -0.67944963961590432 0.0091766156748710921 -0.82825104798213767
    0.0090795319460043253 -0.8888300357412906 0.0092432547929562799
    -0.84190091143889212 0.0096169336711802098 -0.76653452789534315
    0.0097040862635580302 -0.7702047547957348 0.0091824004548704888
    -0.82034371951753815 0.009022148661973638 -0.917683490447462
    0.0091039929428001869 -1.0290959404025219 0.0090004175478489486
    -1.058278995735382 0.008989142301101722 -0.96567404305680271
    0.0093999912450939676 -0.79447676337845186 0.01052703857258256
    -0.6167493633583232 0.012285167278453694 -0.47007288390074897
    0.014959388512931451 -0.35512441443246612 0.02009168781279113
    -0.25540754464498211 0.035817150554283542 -0.15382451343799078
    0.11834017383780147 -0.0524542820536055 0.26955335370853167
    -0.021505865070045684 0.97593261748757754 -0.0099219816111237036
    7.6547192357901865 -0.0040825169257547667 0.59914440434565353
    -0.010934385379308176 0.20833055220658958 -0.025544797876397993
    0.093973239798281594 -0.057073080970823017 0.042724174432875753
    -0.12466202029939263 0.022427537614770596 -0.23849817291840633
    0.014606786361226609 -0.37325889731751249 0.011204170363603227
    -0.53313606806675962 0.0096664264279342823 -0.70209413981322266
    0.0091351227959779544 -0.83745004990550431 0.0090833794130886179
    -0.88007424931675216 0.0092319999839093215 -0.84101427266750906
    0.0094027437080550415 -0.81679095851072969 0.0091982651471546207
    -0.89192403730482583 0.0087863379291949449 -0.97855056346064451
    0.0089601106040964398 -1.1108034291517508 0.0090953034118440544
    -1.1806299570947056 0.0089167596206221351 -1.128857755428933
    0.0089646163171245557 -0.97607041281396068 0.0095517249996382881
    -0.77519539522147773 0.010763916272172904 -0.59444660485818457
    0.012388528244233175 -0.46091023791539754 0.014829329311590322
    -0.35550054572089246 0.019316476802955316 -0.2635491803803216
    0.032238662755345197 -0.16450368713065402 0.10178387638579016
    -0.059513032522771507 0.28160676310321775 -0.023368667891515354
    0.68137948719919539 -0.0074043237608979236 2.1677081021706726
    -0.0040825169257547667 0.96828429446622244 -0.0079883454293463354
    0.33778067000818779 -0.01829645295877684 0.11012713424410198
    -0.051339434532362942 0.042193078163128728 -0.12934639719891805
    0.020849796247658994 -0.25752139340050229 0.013846410772487106
    -0.39501132961156366 0.010897630979309679 -0.55042172292818203
    0.0095907413426751294 -0.70732308831278545 0.009140835256108551
    -0.82604981707907066 0.009127899521889379 -0.86785315071101776
    0.0092266829733360003 -0.86074372211415462 0.0092409831619656383
    -0.90403567970277843 0.0089645791564348255 -1.0347035295982636
    0.008792971236587982 -1.1454361823194157 0.0091305985089769198
    -1.2742078920823614 0.0091042142617443842 -1.2481935412875207
    0.0088985315860213837 -1.1397750920942384 0.0090031104051283874
    -0.96328344629334939 0.0095911179236369565 -0.76301131574111825
    0.010642844571430145 -0.59702704002420259 0.012120770906235662
    -0.47201998945292917 0.014424704567579208 -0.36837041207106841
    0.018700098612517119 -0.27332531634520335 0.030303960202343848
    -0.17338663362772719 0.084045739185599391 -0.068942719853947176
    0.26657282114179148 -0.024644657314558623 3.1510835765894534
    -0.0069849019281066219 6.504927357431983 -0.0047702800621167874
    1.0834727644497475 -0.0041894280225390238 0.41348683773770312
    -0.018648256381970412 0.10536764207332489 -0.05327212370490518
    0.03943768785300529 -0.14042051677981554 0.019237766378276837
    -0.27718062364316937 0.013302078070767992 -0.41220900758168094
    0.010818343387599577 -0.55400339815306554 0.0096864675984830468
    -0.69200544270492148 0.0092448693226821633 -0.79258313982720718
    0.0092135184390030808 -0.84194083559182187 0.0092290378319375942
    -0.86976698260718999 0.0091260415072594771 -0.95866434691792879
    0.0088804006446702895 -1.0941026571060872 0.008879796487547555
    -1.2048945535106514 0.009146897800237766 -1.2724254103359656
    0.0089802249753631255 -1.1836340627652491 0.0088799652257232943
    -1.0783524891312286 0.0091038267435211984 -0.92258453333646129
    0.009600514332904226 -0.75248127303585577 0.010462540184554626
    -0.6097871833223788 0.011799828497338932 -0.48675393868849515
    0.014117684561402858 -0.38089677652984794 0.01868956861762449
    -0.2782988904575992 0.030110332991676945 -0.17549155193650753
    0.071349130087979176 -0.07702614253864605 0.19988510513655666
    -0.029626303999656638 0.84094525335208525 -0.0091102402446475907
    6.1237753886321498 -0.0040825169257547667 1.6909102611898854
    -0.0067072773693865459 0.29060222872968322 -0.021601432335573118
    0.097449342839386846 -0.060707692277510023 0.035128318226281312
    -0.1570224115275366 0.017978327035971048 -0.29716316829999756
    0.012972135741630021 -0.42230679805745347 0.010926611684804018
    -0.54572670683442071 0.0099394243167690299 -0.65910028912336482
    0.0095170892642893745 -0.74125055232891279 0.0094183173905225872
    -0.78837956472434367 0.0093234438830669935 -0.83396729322086094
    0.0090908602873452683 -0.91941339753528917 0.0088553309504785412
    -1.0259556200619726 0.0088775613412684518 -1.1227755144981371
    0.0089860571702642302 -1.1450631619152505 0.0089169675187790176
    -1.0794597021434531 0.0089903200414028113 -0.99988631339674205
    0.0092156451799928485 -0.87891758398800457 0.0096126381809093359
    -0.74358354374596913 0.010327951414885607 -0.61562164263755803
    0.011728731090174187 -0.49307976460795289 0.014212188896869156
    -0.37987428084700636 0.019203497078539213 -0.27351764929762651
    0.03090331683621796 -0.17353912085962375 0.065301956507944486
    -0.08405014822137534 0.17839395414126039 -0.034162442218051363
    0.72680060806126534 -0.0089396474791535643 1. 0. 1.2263737007433526
    -0.0089320884537474176 0.22636152789709318 -0.025397763430053854
    0.077516311632616741 -0.073900175694955175 0.029881229021335241
    -0.17786004742175898 0.016917332253984091 -0.31338342960570287
    0.012825042487910698 -0.42901306127159833 0.011106879955347627
    -0.53508893613681163 0.010267557252323577 -0.62078198750601798
    0.0098628811810199234 -0.68268923835054318 0.0096874184941051992
    -0.72347013698264284 0.0094821683198973647 -0.76555897899305758
    0.0092097577685446678 -0.82507042481961534 0.0090180135158619921
    -0.91939023544776177 0.0089352815371610324 -1.0062601332296954
    0.0089470083282042461 -1.0328150547988861 0.0090041800398750205
    -1.0106726878790984 0.0091032483615716333 -0.95150929723216771
    0.0092356390105956653 -0.85546568645152354 0.0095820198680995929
    -0.74032106833884559 0.010336779490160927 -0.61326579426167072
    0.011888667060846268 -0.4851562920191328 0.014755469135091659
    -0.36804197776930747 0.020318339514053187 -0.26078182399496985
    0.032644014383103 -0.16833375676862808 0.062500684961346781
    -0.088542637028574608 0.17109776495512422 -0.035936233899407921
    1.2057200212717352 -0.01071081285563058 3.1084035706307054
    -0.0059059667841983403 1.1947550115224044 -0.0063521141445941169
    0.18459952406871327 -0.033320214094402743 0.060063061530205179
    -0.0913048629851414 0.026124691582275841 -0.1991080306597362
    0.016062765900929157 -0.32796741246305139 0.01257476217865924
    -0.4389954266254763 0.011092271024320957 -0.53445408811407946
    0.010397746220095131 -0.60594789680655092 0.009991823970037568
    -0.65940509392984525 0.0097265660223358908 -0.69784836599699163
    0.009537628349223606 -0.73042289419662365 0.0093973170455657826
    -0.78112566692492813 0.009163136369046105 -0.871688551911598
    0.0089947413603606984 -0.95845445408422691 0.0090127820363154667
    -1.0112466121564123 0.0090746977830615579 -1.0104488437684862
    0.0090740873457440842 -0.9529450758667668 0.0091725874047577736
    -0.85872463833459933 0.0095567783204039188 -0.73231139362819653
    0.010492049895120014 -0.59491059544069125 0.012272183566913935
    -0.46342915009115859 0.015468821882370341 -0.3487711441489374
    0.021602314695750677 -0.24588474663859947 0.03454885525788122
    -0.15820093566860099 0.065794896362632041 -0.085437962671695844
    0.20501057750388216 -0.03155796156376426 0.80112838185817015
    -0.0097604141189720391 16.330067703019068 -0.0040825169257547676
    0.92599146384527464 -0.011281662667848262 0.13885709865451468
    -0.039757101629765125 0.050812940557092921 -0.10385233479292914
    0.024299944569476883 -0.21198097145090775 0.015527313999749314
    -0.3374778885504181 0.0122634563804291 -0.45170193276974174
    0.010830555475179219 -0.55213160960619312 0.010134482034941036
    -0.6318864750508788 0.009726527839163562 -0.69322439099774313
    0.0094810228062583851 -0.73838490045824501 0.0093269664859713421
    -0.77073076657941308 0.0092118835958347536 -0.82876952328269016
    0.0090652411048955366 -0.91927271014272005 0.0089715128503452118
    -1.0088060986882783 0.0090050697105492471 -1.0608282793932027
    0.0090414249902396691 -1.048123726113954 0.0090015145645349817
    -0.96705521345440448 0.0091734534916265917 -0.8465022843373321
    0.009755016178878884 -0.70122275449120453 0.010932734670331646
    -0.55538565443651511 0.013062795677920784 -0.42707460646741952
    0.016875887836370441 -0.3168104798225877 0.024101940546579017
    -0.22068580332366877 0.038751463222016364 -0.14105726370130067
    0.073159609120596256 -0.0781710423453571 0.1989269154226207
    -0.029182578492498456 1.1745052636088484 -0.0080257859679937985 1.
    0. 0.67743045194532669 -0.010342104899698654 0.13034223502601749
    -0.043273622028637812 0.048396784585620529 -0.10916701376363136
    0.024554369196308077 -0.20903257268663047 0.015957442297017288
    -0.33022464068133384 0.012265676368740121 -0.45487526569794062
    0.010581039790359304 -0.56919680718391474 0.0097712862742586806
    -0.67294360006505827 0.0093716729213697333 -0.76060122562919896
    0.0091670714229806546 -0.82875749514337049 0.0090565093371887725
    -0.8865081899328614 0.008992779315563389 -0.9598404033756216
    0.0089601866312100115 -1.0513839685493109 0.0089706534258689029
    -1.1209048246414319 0.0089915709913075108 -1.128943439491858
    0.0089897909461324008 -1.0627393739357245 0.009048941397563107
    -0.9393329025585363 0.0093869994595349414 -0.78734756501774561
    0.010238985882502244 -0.62699095585584852 0.011917777300855883
    -0.48806277491330052 0.014791158246896483 -0.36895114434919413
    0.019759322047736599 -0.26929222578181711 0.028636730168165581
    -0.18721262347438247 0.044816751016600868 -0.12162743363810283
    0.088757045142441426 -0.066493819652545694 0.2330965801979166
    -0.026033003065103984 3.4296926369754859 -0.0057733159389087348
    7.6547192357901865 -0.0040825169257547667 0.78814988570461819
    -0.010009503548448651 0.14248410269843431 -0.040498731456984981
    0.054363151333695764 -0.099984707932933251 0.028375327488622572
    -0.18820172417891326 0.017729156407121936 -0.29963131237262419
    0.013022109541900492 -0.42724846894466612 0.010766760710396927
    -0.55525136047379708 0.0096810743355093577 -0.68177739738408816
    0.0091870388757289943 -0.80158751598510614 0.0089979268816343348
    -0.90865684586542761 0.008971931066426948 -1.0089452370233423
    0.0090022585562169813 -1.1036228854408645 0.0090612208366722975
    -1.1813322012848917 0.0090423344294405638 -1.1921856786161482
    0.0090119546128711852 -1.1253050489984862 0.0090406791698941658
    -0.99470795821094149 0.0093022236841844245 -0.83223274412924364
    0.010018220458531771 -0.66712599007954476 0.011463256311922469
    -0.52269449230298171 0.01397451014723221 -0.39906542810446116
    0.018207166230644323 -0.29670064291410431 0.024981100867880378
    -0.21262622368528269 0.036186649309320182 -0.14869395756610573
    0.056897637528183539 -0.096895728416537763 0.11475704424736648
    -0.050931088854385367 0.34232733864082288 -0.02021442934674059
    6.2807952703919492 -0.0040825169257547667 7.9016456627511626
    -0.0040825169257547676 6.1066837998566887 -0.0060049057365257437
    0.18016755677681681 -0.033706347080329477 0.072587196736811327
    -0.078972450476426176 0.037455665821716146 -0.14774137678937121
    0.022428955822545487 -0.24325024984597407 0.015405581048547274
    -0.36034629759351816 0.011969998229364799 -0.48644317204398235
    0.010208599615130163 -0.62240998151146698 0.0093414041031404278
    -0.75670417593653161 0.0089670432839366356 -0.88873651263300035
    0.008860885598881249 -1.0021705916762687 0.0088928679606332679
    -1.0895925700834848 0.0089179406011185743 -1.1174380226865099
    0.0089114340937564915 -1.0748398501629048 0.0089850710736181592
    -0.96307263008735955 0.0093227862196658406 -0.81766817267627045
    0.010074657913157727 -0.66465591023765036 0.011549793802228309
    -0.52359507978864084 0.013996888188408021 -0.40214202844498298
    0.017929426219009413 -0.30306915962171466 0.024197135218011402
    -0.22168084444305056 0.0338430799257846 -0.1593659352678555
    0.049465112384615262 -0.11006069947430872 0.083866566172356299
    -0.070039764962740489 0.19636356479161621 -0.03713562282817448
    0.68419120753163565 -0.012201409867647502 3.4020974381289726
    -0.0040825169257547667 1. 0. 1. 0. 0.35436976592843078
    -0.022738726647074308 0.12394825414122598 -0.051905397225874068
    0.057706483627069961 -0.099988024180624122 0.033587353790810542
    -0.1684316226332373 0.021636815134268017 -0.26031071981245063
    0.015448413568205534 -0.3698370806113162 0.012174356454018282
    -0.49009799512089147 0.010449052992553004 -0.61537067921304456
    0.009563722434029618 -0.73897799359204341 0.0091617488731368553
    -0.84317590464230574 0.0090462563769141725 -0.90195141353546182
    0.0090738577911196883 -0.89980608323712019 0.0092695563858204554
    -0.83974857905988531 0.009719787177505157 -0.73465553413096107
    0.010637555873087607 -0.61257571084840612 0.012242464956319374
    -0.49207118796130972 0.014900760471377032 -0.3799281665828102
    0.018951479783046236 -0.2888173933136608 0.025040927583794417
    -0.21344093709719539 0.034772498014742532 -0.15366778231001738
    0.04948875680781574 -0.10912600801168756 0.075483885452548014
    -0.074098756154493753 0.13956777504971854 -0.043317185116264312
    0.33370543946177528 -0.019343791974134241 1.0817138996367865
    -0.010402482001507098 1. 0. 1. 0. 1. 0. 0.65316724493651523
    -0.010352700832243766 0.23527088699057305 -0.028750102390248028
    0.10589559191438495 -0.057568373617723469 0.059537456219121085
    -0.095310536788380001 0.036544894002382616 -0.15360976204178156
    0.024435116732738491 -0.22342452610552213 0.018040449598609017
    -0.30357777033971306 0.014347328131871021 -0.38847997348318075
    0.012340002153670652 -0.47019583239547175 0.011332497678375531
    -0.53312356540700145 0.010976936830697366 -0.56650598866125268
    0.011043147742482542 -0.56278365603933089 0.011601952764605759
    -0.52716469557117129 0.012738150523733418 -0.46805739652434009
    0.014423444732045322 -0.39580504525709581 0.016997044748378556
    -0.32478944599478732 0.021107963135629754 -0.25570503161948921
    0.026973584154826809 -0.19461171231865995 0.036514784921153232
    -0.14457420509781937 0.051060803624541448 -0.10177354277104227
    0.075086963606358748 -0.071425222681155323 0.1195539832930813
    -0.047777756856691722 0.25292947381802755 -0.025752435925905506
    0.51297176906466124 -0.011379423743751069 2.4583835782087951
    -0.0047528749178703368 1. 0. 1. 0. 1. 0. 4.2538092194313197
    -0.006664301110442401 0.61654432262170566 -0.010964213203956
    0.21602544608191854 -0.027604451585167823 0.10864826383686564
    -0.051553601190592747 0.061737350291149698 -0.086771845834210895
    0.040364909928613746 -0.1283920327524358 0.028612152561722906
    -0.17577589804768851 0.022694195330940446 -0.22305443764921434
    0.019225169603306887 -0.26664028561813097 0.017635987363975612
    -0.29484431541339895 0.016989234794794677 -0.3075054329396969
    0.017168678155634391 -0.30518012168766356 0.018296930547594088
    -0.28923177911951814 0.020057933343472379 -0.26323129112972693
    0.022263524117221829 -0.23372358935880061 0.025802018189541493
    -0.20102782405108269 0.031346829126865844 -0.16369105191188499
    0.040373375387709659 -0.1276659960926563 0.055556842332466098
    -0.093965139331644326 0.07957909544303679 -0.065683259060425186
    0.12393037386965705 -0.045926531049863738 0.20540333524789875
    -0.028718809656577044 0.5019094832232549 -0.015693036508780435
    1.5912073332956527 -0.0056753061554211609 2.3552982263969806
    -0.0040825169257547658 1. 0. 1. 0. 1. 0. 1. 0. 6.4460793564548942
    -0.0040825169257547658 0.42655553896960768 -0.015121393856472593
    0.19235291492922035 -0.03136955454304035 0.099074653779864116
    -0.053330234885471187 0.066059337903862758 -0.079228266914997791
    0.046793070342535159 -0.10837665033583997 0.038155093701435369
    -0.13397906785967686 0.032475493672729311 -0.15751318066969958
    0.029280715938901667 -0.17510551348168438 0.028337019777137335
    -0.18262689734335766 0.028843043729560394 -0.1805353407468554
    0.030495643608517826 -0.16987649098197535 0.034411445280974971
    -0.15315731360838736 0.038312780160134272 -0.13543312368073065
    0.04494156578402702 -0.11648029922513764 0.055227542355114533
    -0.093951254136442341 0.071958047886264295 -0.072576887098086171
    0.096920183237295565 -0.052364359666723509 0.15261325299611461
    -0.036382999514273727 0.28569172361868639 -0.021503063731033129
    0.80531623469345792 -0.013019279127544236 8.6984809647906935
    -0.0044942151651418587 4.1517121278862037 -0.0040825169257547667 1.
    0. 1. 0. 1. 0. 1. 0. 1. 0. 1. 0. 2.285590904865987
    -0.0057901636256605001 0.58099546031975102 -0.0090538459233161193
    0.38443818204485203 -0.016005442979134008 0.24797937345246546
    -0.022119760111959919 0.2093799232395735 -0.026845995824700649
    0.16186917948672025 -0.031845063244354099 0.13019713925899318
    -0.043748408743342695 0.10996886744491646 -0.047282947372399249
    0.10102754437895323 -0.053138804550923083 0.095859856188538567
    -0.05662281938629992 0.087696849394196696 -0.060338355611520469
    0.095082200380204471 -0.056295001438439726 0.10640768770340518
    -0.051366537777357127 0.1241054187847352 -0.042632279776202958
    0.16549655953012565 -0.033171027081821514 0.25277062613373452
    -0.022462882975751206 0.35213484965517022 -0.016069086972597599
    0.59285407782360333 -0.011432202800698484 0.59585189636506186
    -0.0090072945000518514 2.8851969640687107 -0.0057703939281374215 1.
    0. 1. 0. 1. 0. 1. 0.</input_scale>
  <output_scale>
    0.52631578947368418 0.49999999999999994 0.52631578947368418
    0.49999999999999994 0.52631578947368418 0.49999999999999994
    0.52631578947368418 0.49999999999999994 0.52631578947368418
    0.49999999999999994 0.52631578947368418 0.49999999999999994
    0.52631578947368418 0.49999999999999994 0.52631578947368418
    0.49999999999999994 0.52631578947368418 0.49999999999999994
    0.52631578947368418 0.49999999999999994</output_scale>
  <inv_output_scale>
    1.8999999999999999 -0.94999999999999996 1.8999999999999999
    -0.94999999999999996 1.8999999999999999 -0.94999999999999996
    1.8999999999999999 -0.94999999999999996 1.8999999999999999
    -0.94999999999999996 1.8999999999999999 -0.94999999999999996
    1.8999999999999999 -0.94999999999999996 1.8999999999999999
    -0.94999999999999996 1.8999999999999999 -0.94999999999999996
    1.8999999999999999 -0.94999999999999996</inv_output_scale>
  <weights>
    <_>
      -0.0024205505044311306 0.0014350020023881954
      0.00064644512343053386 0.00048633238430626955
      0.00037031664159510754 -0.0016347347408353825
      -0.0012924630049669246 0.0017709373011530339
      0.00073201703133273985 0.00084176117600069666
      -0.0022103004689572893 0.0025701767177842448
      -0.00046055566270852285 -0.0012959532608692174
      0.0012146696274049592 0.0013501453984548978 0.0012006486140541946
      -0.00079047858364686484 0.000527027450430817 0.0014969797402949717
      0.0018790840525207588 -8.0425485038962896e-05
      -0.0021396785201270195 0.00038027502702400544
      0.00054070604485474824 0.0019483366631563347
      -0.0011016644708152256 0.001958428128584465 0.0018217483075673349
      0.00035326222553837576 -0.0002466518888835364
      -0.0015093692338370161 0.0024117844440002967
      -0.0010806241320293882 -0.00051099068755931939
      0.0011185571773340256 0.0022493344026269821
      -0.00057268389394363574 0.0010421095318872201
      -0.00042355703764858566 -0.0006865004109357849
      -0.00059625754962180889 -0.0023240753129875041
      0.0024844909353482392 -0.00045812788503573639
      -0.0013234199368159457 -0.0013117890958410138
      -0.0012971892833947409 0.0019286432407072259 0.0024776955337968321
      0.00044171985651576075 -0.0006440203666915244
      -0.0001906348017913781 -6.2389818836504937e-05
      -0.0013084339282737141 0.0012973360679489304 0.0024794315242453327
      -0.00016896887634146917 0.002350218791465694
      -0.0010219549636833831 0.0017979035016160393
      -0.0023143435270049804 -0.00067635147751573383
      0.0017444478761288152 0.00040994780195165853
      -0.0011371349919335483 -0.002151145611916404 0.0025932848588354198
      -0.0012192245718567042 0.0006225953996879534
      -0.0024739335763265301 -0.00055506389869876402
      0.00093319818898351112 0.0021824289240875705 -0.002477019821294185
      0.0018768121412062618 -0.0017568050742993696 0.0015740954205610838
      7.9169482570736166e-05 -0.0016393361948915856
      0.00085506088794419836 -1.924798374751756e-05
      0.00066870247944575878 -0.0004290520952877842
      -0.00033062849336926858 -0.0023421222666677173
      0.0012299060377926766 -0.002492737699561552 -0.0017246591510148518
      -0.0012900388111961947 0.0025464509944050323
      -0.0017040511063194179 0.0015449500455183046
      0.00098159894791508451 -0.0016395223755152628
      -0.00062404130075466161 -0.0022485511052531527
      0.0018022481891010835 -0.00044152206997778156
      -0.0018918223063722698 0.00051696284291902759
      -0.0011462587045603955 0.0013271121066285687 0.0020349253709197814
      -0.00020789439996259971 -0.0026278472881858567
      -0.0006213754783014428 -0.00056314481290179158
      -0.00058884356465172384 0.0011347947913265721
      0.0018158400495619021 0.0012053427000363397
      -0.00033871773124435558 0.0015782343508407672
      0.0023643370250245712 0.0014576160908754509 0.0012876331728093708
      -0.0022223573664666742 -0.0012420822153991372
      0.0011362399353808165 0.001710096478136151 -0.00050338429278175907
      -0.00030546605958209138 0.00043034523465551626
      -0.00064746045629228421 -0.0016978176696383109
      -0.00087716089684717268 0.0013099967938766299
      0.0025309688048468135 0.0022139388332729913 0.0012271952495767201
      -0.0013760202161781077 0.0022781054343213652 0.0011187243823972766
      -0.00059168778960385607 9.044356346673997e-05
      0.0011737100848109752 0.0016946094836335348 0.0014360221092004171
      0.0015096901934200362 0.0012055304274241829 -0.0023970962661184411
      1.1189925039224962e-05 0.0024339091520092721
      0.00068246957020225065 -0.0019466637872566574
      0.0019128338834277757 0.001187249314098747 -0.0016671804626521374
      -0.00092280886061430151 -0.00090378716211687784
      1.5028303414525847e-05 0.0015830882291244469
      -0.0020735257460117373 -0.0013935019467597616
      0.00047332415432493305 0.0020341573810042654
      0.00015534700032835617 0.00016897684656261975 0.002098055329752413
      -0.0012725018011645519 0.0015074175020667185 -0.001192730843774285
      0.00063270803180099126 0.0012009875370347731
      -0.0014028178347273699 -0.00184070666147317 0.0009781184645530894
      -0.00025555596028841446 0.0011701808567341364
      7.0336764253263877e-06 -0.0010000431699142614
      -0.002214134350213494 -0.0016687057698110078 0.0011007261996600771
      -0.001693920809720545 0.00035574447253273496
      -0.0026434521257609127 0.0007493237940151236
      -0.0010962931057807044 0.0020796859914649882 -0.001382635064633425
      0.00012133118845778682 0.0012703957711136737
      -0.0019114526515396119 -0.0013823455460982696
      0.0023022513274066556 0.0025358567994682784 -0.001544236947369743
      0.00017981362358265537 4.9164853528702494e-05
      -0.0018031647956547069 -0.0024879459553097151
      0.0021383652794560544 -0.0017063002883048932
      -0.0012903812449038034 0.0020691899488953155 0.0023874476647723678
      -0.0012440421304832857 0.0015220685602870521
      -0.0012804791524286005 6.7518982672510366e-05
      0.0022473935682637883 0.0025395760880831206 0.0020356583424529263
      -0.0016138746992204096 -0.0013125068490776859
      -0.00024967956905256933 0.00099626523151477467
      -0.0022087560357629669 -0.001133399263987757
      -0.00024273224828371152 0.00077630524580477305
      -0.0011719426692489087 -0.0021526167959436096
      0.00069756280721370938 -0.0017932330600998283
      0.0022032823546913132 0.0016967791950376206
      -0.00046670675607554966 0.0019657832172314212
      0.00047572160320977859 2.4196172310331802e-05
      -0.0018023716354937927 -0.00055313062079023116
      -0.00077810070075995657 0.00078924255296625189
      -0.001853989477201011 0.0005873208217882709
      -1.4364542198512952e-05 -0.00037005197919411916
      -0.00013051920236366695 0.00051243703799553448
      -0.00045621173344591185 -0.0020872351248095214
      0.0015649932360349626 0.00036981424496011366 0.000727430274142405
      0.0025460278507528199 0.0025365933194760764 0.0025158350421405724
      -0.0023615546120955722 -0.0012583764613015537
      -0.0016633140146560046 -0.0018493254841341802
      0.0019246471609057954 -0.0015308133917483928
      0.00085661101783838774 0.001163360290707362 0.0011636892052986827
      0.0023952945647002163 -0.0022650504756487467 0.002528780716743504
      -0.0013288081774388873 -0.00076078269073251144
      -0.0023974205932407581 -0.00061567097556772905
      -0.0024550451659969101 -0.0020194665297914079
      -0.00045393484599494074 0.002067052668670561
      -0.0014286995200401475 0.0015193755833401176 0.0016001437509212948
      0.00066061854525575404 0.00075144454020521138
      -0.0015832582881968548 -0.00085068829274626879
      0.0023305822256111386 -0.001287860682054462 0.00041478542558612589
      -0.0012017254463562359 -0.00044069246579095638
      -0.001563586370490934 -2.098387109381217e-05 0.0010026498544624348
      0.00011317690796402345 -0.00051452835386936024
      0.0021118045128503617 0.0010621802801247557 0.0025321294644884951
      -0.0011390643432238222 -0.0020036757981347496
      0.0017314170889499391 6.9629191236917293e-06
      0.00020688158345708263 -0.0012167102806306606
      -0.0008458800156031283 -0.0023932734020564923
      -0.0013774006877800213 -0.0017264958234849092
      -0.0024408056547225868 -0.0013030197702342545
      0.0014223462354478059 -0.0018150743848009752 0.0010607679553529001
      0.0011457832214779072 -0.00078212374879075978
      0.0023380798146733057 0.0018903937641332677 -0.002463775755971839
      -0.0017327611006138013 -0.00032378306990859938
      0.00016180144935055938 -0.0012961637534946498
      -0.0015411780484630919 -0.0021537375971565132
      0.00012317466357031616 0.0015599706515948475 0.0011229033724529734
      0.0015818133332635399 -0.0019540008608226636 -0.002255820276008715
      0.0019116751418444995 0.00083133094378275629
      -0.0022891370683491056 0.0024031849968570462
      -0.00013613195690988339 0.002462216519693354 0.0022469265872351492
      0.0024494425977865169 -0.00029295322001577306
      0.0016263391547587558 -0.0016648528357311662 0.0018727763036764215
      0.001852079095486009 0.00064534836527017534 -0.0017195487636912942
      -0.00046828258247767459 -0.00060614827423209833
      0.00044961056154226058 -0.0020485627850883813 0.002216565561157
      -0.0016492413479823576 0.00014803770786422232
      -0.00030716332438940645 0.0012275297819493308
      -0.00079261346353845356 -0.00087650038045191661
      0.0017467783934365863 0.0021873663002375428 0.0017071729699708561
      1.9790759716433563e-05 -0.001604102622209491 0.0015395465515133505
      -2.2511662081614524e-05 0.0015536478704625903
      0.0014058071744813801 0.00012250369605975531 5.719869241096227e-05
      -0.0020377801436181173 -0.00047540037857234395
      0.0025022676434635475 0.00033698534705258745
      -0.00045652052671102329 -0.00064871204061360674
      -0.0014368690111675427 -0.0018460580862454084
      0.0016788573759091644 -2.3169259312089808e-05
      0.0010241894484573474 -0.00052059452859064444
      0.0019369844312283346 0.0013613665550706595 -0.0014609165515413313
      0.0016353555721958823 -0.0017484303080780345
      -0.00098769956475628002 0.0019895852174061689
      0.0013500322622759257 -0.00042483851452518773
      0.0011806367047931671 -0.002150534264095044 -0.001496950775381785
      -0.0010560767198640789 -0.00092839625224441541
      -0.00052891810164221848 0.00038078254351640633
      -0.0018593186183068571 0.0014254308029464551
      -0.0015216629997243951 -0.0018371929884189002
      -0.0012258620193153433 0.0003835172959631561 0.0021099175712824109
      0.0017863209992656887 -0.0012247747008538195 0.0018162513154208419
      0.00035836765706962333 -0.0014583466846682103
      -0.00094678862064250565 -0.0020185694331992534
      0.00050007426908329296 0.00033419538479413874
      -0.0022175583327624817 -0.0010735187867801201
      0.00094736631819714132 0.00083970004763847137
      0.00062358923090343843 0.00096438103725346653
      -0.0022164555538606943 5.4420167816968225e-05
      -0.0018052510358768502 0.0019240928100986337
      -0.0021490698847570181 -0.00024642684111729599
      -0.00087907366447753643 0.00046436471972906502
      -1.1994013800273768e-06 -0.0021401963432074326
      -0.00068970606255694563 0.00038017699352059709
      -0.0020592862362326545 -0.0025428084608797009
      0.0014869682197062102 -0.0013405091543033452 0.0016968982477163824
      0.0017704015934604858 0.00064125698621222916 -0.001979929475591237
      -0.0024456948771803062 0.00045459415416279625
      0.0012540231720655629 -0.00098573991260705852
      -0.00050831974461482338 0.001480468575011348 0.0014618755857651791
      0.00052373276336358714 0.0010008846415550826 0.0010255819283968911
      0.0005821757312288471 -0.0014314002514243861 0.002482314594576368
      0.0013654473545955429 0.0021318104993299112 -0.0020792807229852582
      0.001415861466693898 -0.0014027274169071838 -0.0022045368648913638
      0.0014152284822082494 0.0020776017304350481 0.001802574415633047
      0.00099866222355474567 -0.0023696410317319218
      -0.0022997048297506593 -0.00041220031205319632
      0.0013155909968711251 -0.001851259121822237 0.000723097001063388
      -0.00067249481941697139 -0.00093880677162632526
      5.4085995937998971e-06 -0.0012568627966251663
      0.0023540797354095421 0.0001925848329735936 0.0020414061453407719
      -5.5441016609146411e-05 0.0016725815764287602
      -0.0015141144667079401 -0.00080722320790434969
      0.00048796252411046546 0.0012086175359074178 0.0012514949110977117
      0.00037731660468528301 -0.0024826689300271616
      0.0012886341754009213 -0.00053360375401134501
      -0.00015712886999594831 0.00011766592042732685
      0.00068167344273453528 0.0013105015618259488 0.0024140224040915858
      0.0020326166271387794 0.00038221501712223189 0.0018753598136256482
      0.0015706139240755106 0.00014080165751850481
      0.00054730393808934119 0.0011817469450253414
      -0.00076467872788588717 0.0022710444851607738
      0.0014284207686235297 -0.0021640394359977761 0.0024457893471332356
      0.0010302372038769772 -0.00066290070468812839
      -0.0014451298252028944 0.0011914342813724884
      -0.0010918813788870273 -0.0009136473394403793
      -0.0024583099820259641 -6.8171030556053613e-05
      0.0012496583613574785 0.00063776170489075507
      -0.00038683981927118051 -0.0018659025885716541
      -0.001979217671529272 0.00036679595765748348
      -0.0016397670071395846 0.0022832643959672383
      -0.0016444973995184962 -4.3799719571041755e-05
      -0.0019234802182087976 0.0019955441270866278
      0.00078379081026646973 -0.00064226866380196466
      -0.0022320138745057973 0.0011573243959949119
      -0.0016460949203925604 -0.0020755162909711178
      -0.0012109553474629624 -0.00096223127535712103
      -0.0024556823726113244 -0.0020884822605287236
      0.00083647399913376011 -0.0011715070707087234
      0.00024278281631352622 0.0011581771796937818
      -0.00040330837013380296 0.0015824098313722309
      -0.0017101300713433915 0.00098356730709377085
      0.0016734374921022789 -0.0021473635452652425
      -0.0011191184655680651 -0.00023292075670681387
      -0.00030185425824921211 -0.002450175405712734
      0.0015519678781633105 0.0017895093487173177 0.0022824508221209183
      -0.00069918115323958703 0.0020545364196580111
      -0.0023435375089882133 -0.0018624521674573851
      -0.00071530963808762377 0.0011792094761575828
      0.00011042226654290843 -0.0022926958353979734
      0.0010962807321928645 0.0016831733648141063 0.0016013711343898489
      -0.0019381831863357066 -0.0023382058752455916
      -0.00030810437302436147 -0.001898167663309239
      -0.00023042132699242283 -0.0020610169473894739
      0.0025842750669696794 0.0014309275739700636 0.0015143113665246092
      0.00090615531771475757 -0.0013587519638244719
      0.0024651313105914078 0.0015240451687102117 -0.002428277156177501
      0.0016318612250107445 0.00033842549473152013
      0.00030722036925785279 -0.00073227304338553559
      0.0020044199844071438 -0.0020345171809719943 0.0023343011015022606
      0.001134225573847888 0.00049593631029242922 0.00085410644862180007
      -0.0016293632787721685 -0.00013219935808418687
      -0.00051521000701130115 -0.00019641604846128209
      0.0014276188815836748 0.0023182068196054752 -0.0020848562959408495
      -0.0011070846748979814 0.0017618235901167869
      -0.0025618360897068618 0.0022319216860293978
      -0.0014248873289222749 0.00025075396377822925
      0.0010416372922339577 0.0016182438616021888 0.00018310740123394638
      -0.0024202149852918923 -0.0014834529333748094
      -0.0021989756480028512 0.0016468337552542516
      -0.00091285134929262543 0.0015151216860828597
      -0.00030812673440370157 0.001591138962693165
      -0.00065570337213540647 -0.00029035718609049234
      -0.0011680406412625435 -0.0011102282096722368
      -0.0012260975208491212 -0.0019098697270013918
      -0.002136789887343362 0.0023938318505867615 0.0017692072442782559
      -0.0015633724628327972 0.0019480833401877196
      0.00049223404527388764 -0.0025238726703305072
      -0.0013079980521101626 -0.0024689822304553876
      0.0022754617926418891 -0.0010526081234787173
      -0.00036487051617187715 0.00074661993505201955
      8.8176955885737579e-05 0.00014204778018725263
      0.0022194126952998438 -0.0011465519056710516
      0.00033471743796456343 -0.00013690072539198063
      -0.0015037947783071259 -0.0012131881101341631
      -0.00065869390660468262 0.0025136147601643034
      0.00063911516776470122 -0.00060170081568829549
      -0.0015975527086024247 -0.0015081125850617896
      -0.0012483711438428058 0.0016958192197941697
      -0.0016874047182942665 0.0020406328032924535
      0.00054109352823225913 0.0023572418043326508
      -0.00066461234673784175 -0.0022344712809501109
      0.0017370420343524328 -0.0024953692649923817
      -0.0021902626961608791 -0.0019654842893343217
      0.0011293036224160132 -0.00085480809002626572
      0.00079639741538591817 -0.0019809337215259256
      -0.0024630292053501096 0.0012599241735902565
      8.3371238203419936e-06 0.0021592955624610472 0.002199947195159866
      0.0011908400715213755 -0.001115791043480746
      -0.00024904038560582875 0.0019828792170721488
      -0.0013476219811589117 0.001614400907091412 0.00048018778456202432
      0.0023727915737910585 -0.0021034541822378084
      -0.0021415394661600902 -0.00020942570282149673
      -0.00012922274163676011 -0.00097633837759629482
      0.0010675545593480118 0.0024247779846677262 0.001610457901944592
      0.0010372634287889719 -0.0013263478651929445
      0.00048783615052579307 -0.0023871620269005785
      0.0021658669210854781 0.00040543591949549873
      -0.0014967398316167893 0.00099766840101011352
      9.5842339174919401e-05 -0.00014131016345175648
      -0.001849627748705581 -0.00038688260955722497
      -0.00072722988927389869 0.0005357770543173221
      0.00064167778067824818 0.0013213568390607301
      -0.00028343058822535193 -0.0022457459230124043
      0.001084441722754493 0.00094519626124856611 0.00027932098715385535
      0.0016473504067753258 0.0017313164229988214 -0.0019908499722539157
      -0.0003430285949768936 -0.00088577477050569438
      0.00011383949943254825 -0.00082428983473605184
      0.0024935082164892781 0.0016620632511049668 -0.0017924774336673535
      0.0014014582207323013 0.001952154423035607 -4.3369631488864012e-06
      -0.0022558503169665257 -0.00063522439460446671
      0.0011794046097692999 -0.00058840801530963866
      -0.00057352567867470278 -0.0020118437580888137
      -0.0013476482375602335 0.001354837824211801 -0.0017252890213117569
      -0.00094683011213765925 0.0016393767554926939
      -0.0016294771394427603 0.002521972535371723 0.001609187483115818
      0.0017540571965168929 -0.001313894611923388 -0.0013818338026690637
      0.0012919432192977096 0.00052065326746362215
      -0.0014259099601866515 0.0014388457219316937 0.0021229797614214863
      0.0023265137146770715 -0.00094943249687301544
      -0.0022401223218766913 -0.001029921653516365
      -0.0023407606355034072 -0.0015261092614926182
      -0.0023265652824038833 0.00047096330133939405
      -0.0022141228230922556 -0.0010368395841838908
      -0.002390213000009933 -0.00067511542148368335
      -0.0012864807580300723 -0.00072476447770544576
      -0.0021492792608209699 -0.00018627811264475247
      -0.0023201687831470703 0.0011290287380168712
      -0.0018669768818578415 0.0022362722195235735
      0.00080332181871714059 -0.00026364440904096234
      -0.0010969783726154777 -0.0012612401614405214
      -0.0023146101162683252 0.0018099731669868398
      0.00023059498799041142 -0.0014460718159596216
      -0.00044575466122235706 -0.00091976276145972413
      -0.00033430557980620768 0.0013008530129872023
      -0.00062276622778126517 0.0009545372203492151
      -0.0021125038787852216 -0.0020708700987723499
      0.0013896253439127217 -0.0016220540185531104
      -6.1094991801359757e-05 -0.00240331016519404 0.0020200620487014569
      0.0013401661262286558 0.0017378402962273996 0.0012622001108558072
      0.0021219500594079161 0.00068735298374746859
      -0.00094233822913175277 -0.0015570917301707494
      0.00094202241748686814 -8.2246624124944297e-05
      -0.0020779578190614528 -0.0023425124091877416
      0.0024800072015925679 -0.00037517521843828569
      0.0015333096958438271 -0.00020463205170469185
      -0.0009672940169407234 0.001027804216877668 -0.002147144744772411
      0.0022219113751527934 -0.00076046705465305554
      -0.0014477190878338095 0.0022969418109218087
      -0.0010498357161568637 7.5893157523197209e-06
      -0.00051427017222484869 -0.00020741507888035832
      -0.0012750270045966054 -0.0010205244621941986
      -0.0022674548856424664 -0.0013183111555557783
      -0.0021033634975185676 -0.0022761261064939906
      -0.00091252804572785587 0.00085654489175597992
      -0.0019076068142659392 6.5237747732591148e-05
      0.00093643072674621847 -0.0013167067929967476
      -0.00018707731569319669 0.00021096796350695396
      0.00076982404271420371 0.0017329578598765589 0.0015787247828741168
      -0.0015179642873671131 -0.00087803738569985153
      0.00043472526194037012 0.00056108848391255299
      0.00081344258797895409 -0.00030913411210118117
      -0.0013031592582726976 0.00089551951712634685
      0.0013912398855951233 0.0010562222524353839
      -0.00024191583006407012 -0.0013910501813282044
      -0.0011338867673053499 0.00080296326768569399
      0.00018205861206110248 0.0015261867539824105 -0.002342846356889671
      -0.0012240567201625651 -0.00096631872044087251
      0.00026675942656919824 -0.00085755558735715973
      0.0021016492322200953 -0.0012781205696404214
      0.00032698463444199926 -0.00054219878123946041
      -0.0024234602196634945 -0.00015195794717596999
      -0.00011159745783324152 -0.0012754761472135786
      0.0018740413463363139 7.1723437773865557e-05
      0.00070681783326243908 6.2635235000914981e-05
      -0.0019164362505714274 0.001708748119529073 -0.0021696413633305617
      -0.00029219060401943685 0.0011382689203266938
      -0.0011539536179386771 -0.0020406751141909523
      0.00026531530683694866 -0.0018971258327623304
      -0.00073802756998401673 -5.6600145153860144e-06
      -0.00233734211632774 0.00061385090351922774 -0.002161465010879261
      0.0017154924714512978 -0.00032312846534339213
      0.0021057069694721407 -0.00037232250150414617
      0.0018566350946428575 0.0022811978958039861 -0.0010426359743104729
      0.0010763833965110746 -0.0024059253182243359
      0.00019347237773982432 0.0023471026210998363
      0.00059245486328478314 -0.0012721968826263702
      -0.0014765407922161216 0.00047361676204731853
      0.0020528567978636831 0.0023960840416291378 0.0022891213066334138
      0.0012260727197541549 0.00047076443270880312
      -0.0018989075810434202 0.001561473472615871 0.0015756456005196256
      -0.0019407772307120661 -0.0018114495270365185
      0.0017837455557398541 -0.00078965220393009 0.0012194176206592926
      -0.00039373441084868441 -0.00070036304922911543
      0.0017669639648478135 -0.00076998449352049783
      0.0023700409985625667 -0.00023310014938941756
      1.9394414123851826e-05 0.0011251285611750094
      -0.0011411157294395837 -0.0018065037803539484
      -0.0013750306883229082 0.0015184359208290611
      -0.0025577932330219425 -0.001531556056906327 0.0012450623862970492
      -0.0016769463282852266 -0.0011407877696454607
      -0.001745060248857477 0.00023707486576198195 0.0022397168151562005
      0.002422082939188911 -0.0011825633399235272 0.00046799572598169991
      0.0016521004652817952 0.0020649586365204982 0.0018520543735109361
      0.0014466576111475499 -0.0010408105381045029
      -0.00024429848070626158 0.0021278611551909612
      0.0011052344849717616 0.00091089933745043311
      0.00037423707290461141 0.0010766520363299718
      -5.492440065997108e-05 0.0014747365807939088 -0.002334203899861781
      0.00093863755278867191 0.0020868864267757263 0.0014353976223345937
      8.0670722930146273e-05 -6.6601619693575488e-05
      -0.001172861596410466 0.0012641911193869706 0.001460030465132956
      0.0024609058252736652 0.0012192572683549512 -0.0014261947267697258
      0.00066948891517977537 -0.0014088055714047633
      0.0021666629295697421 0.001846266877315816 -0.0015914993803691688
      6.7238500974824689e-05 -0.0010998054362592301
      -0.001124451563359684 0.0022465617770209213 -0.0013860609169086692
      0.00088414290736526352 0.0012418506404166746
      -0.0016415465303808944 0.002416633770283201 -0.0021111835766581674
      0.0022585166705138405 0.0015041022026570572
      -0.00019402429626209854 0.0015635912823090561
      0.0010527846433361755 -0.002416900903078961 -0.0013854918430142484
      0.0011361739990135213 -0.0012725678100463907
      -0.00022918120002442043 0.00045706989180679627
      -0.0012491618415399546 0.00077696310751877891
      0.0016452238744204136 -0.00017248358245805401
      -0.0020240745936171011 0.0013772838039329447 0.0014563748305047501
      -8.9460343635394412e-06 -0.00088048899602689618
      0.0023318587350374203 0.0022810023990172744
      -0.00054024944613879249 -0.0018062263539025743
      0.0022589095719825567 0.0006231744803887534 -0.0016378367687758216
      0.001969311342698293 0.0016062785701707767 -0.0014651675207955888
      -0.0010536184707310462 0.00025578790769550616
      -8.9609605955051329e-05 0.00070863529884173976
      0.0011717752916543889 -0.00065315598326807719
      0.0010237435601995993 -0.0018723753304900521
      -0.00050490023417727335 -0.00087468650342374665
      0.0017086922934829211 -0.0011177371690212737
      -0.0010977192298165536 0.0011708706722467967
      0.00093807082562001153 -0.0020463162470105429
      0.00033340087556159629 0.00080738156914729627
      0.0023864595936154368 -0.0022633912999653308
      -0.00088443685462903025 -0.0010945426654387529
      0.0021114512972206503 0.0016292350416410603 -0.0020214387742166955
      -0.0015304206143414241 -0.0025543792238464612
      -0.0013190252779464999 0.0013667392178958392
      -0.0017589560372211733 0.001636390574183957 0.0013785901492832497
      0.0020083151546723349 0.0018272778278342235 0.00069828899729658671
      0.00051735722337835604 0.00051785538133258347
      -0.0022195795021714851 -0.0019206163588961576
      -0.0023564656836951659 0.00082126803989862628
      -0.00042084850458190711 -0.0023587344326903787
      0.000913572491809236 0.001929214599544389 -0.0021951551430501085
      -0.00086467205170623806 0.0020450267767225462
      -0.0011554535384737091 0.00018222234801288639
      -0.0010240729083307129 -0.0024259810056627643
      0.0012909672784429216 -0.0014727425877345641 0.0009856688280087296
      -0.0017897816937535529 -0.0015935451973514072
      -0.00010374744319149859 -0.0020618520102469022
      0.00065600387690814999 -0.00019672737562515623
      0.0021460499370567288 0.0011049065731680995 -0.0011124302738558074
      -0.0024493817607904389 -1.9128838029790416e-05
      0.0015226777457462066 0.00048162380028477479
      -0.0022248485088827374 -0.0013337644822310629
      -0.0012570264942768554 -0.0013471148801908305
      -0.0019327819353228107 -0.0008367411032484674
      0.0016038869237644995 -0.0023718096809756768
      -0.0023197604221525925 0.0021373903023772325 0.0017335641348217687
      -5.4834811514299929e-05 0.0018489978706990979
      -0.00059709966640714032 -0.00075408931194511839
      -0.00026701187113072674 -0.001620588763382494
      2.0358579351147518e-05 0.0014710876347898301
      -0.00040469844855370448 -0.0012499106254333717
      -0.002002285778733133 -0.0016101205454131292 0.0021193049414988722
      -0.00010145529383584655 -0.00049366862534875374
      0.0018996068578570392 0.0012751935717241465 0.00055986018710755094
      0.0023401255253264319 0.0018574524887066375 0.0025449263979385205
      0.0004917411761026628 0.002115921245585425 -0.0022518042367263066
      0.0024168842712453172 0.0020128130992059924
      -0.00041407593537220707 -0.00042911295418353003
      0.00019337204557676676 0.00081521574437030627
      0.0019337108456058407 -0.0020227188024618029
      5.3144872838818893e-05 -0.00083253476628240397
      -0.0017613601221703166 -0.00053310785367231958
      0.0018644099487470393 -0.00024323731400010648
      0.00094286154477943979 -0.0025086734848478748
      -0.0012774683424536522 -0.0020728466905956451
      4.9523821117368232e-06 -0.00053542046750893011
      -0.0021120917059856094 0.00088868961566093609
      -0.00011822627199413681 -0.0015608568662101197
      0.0024843638094590916 -0.0014643507096143977
      -0.00030941395677795995 -0.0012020835393391559
      0.0012402720079093296 0.00028467446622635289
      7.1301419407129364e-06 -0.0019520772735413894
      0.00096478133724800226 0.00016748590481547787
      -0.0018426482634378873 -0.0025044088343399019
      0.0021328752650343042 0.00097940098225204691 -0.001124674097415859
      -0.00012147735505715627 -0.0019877965366416608
      0.00083164271816482465 0.00020051486555808354 0.001097199066386498
      0.0017896879019800433 -0.0011643265276362258 0.0014704769451938369
      5.5558269047500654e-05 0.0016323857113135344 0.0024622543811438904
      0.0021903342252888904 0.0017804830544741793 -0.0002379762559633912
      -0.0008248105718399552 -0.0020514012269355376
      -0.0024228625125908812 -0.00065185124875874608
      0.00074441134276044952 0.00039274501889417248
      -5.9630297485111508e-06 -0.0020094444388413569
      0.0012786259815994892 0.0018483514612749267 0.0010924476856528156
      0.0013703479507249977 -0.0022618816221256842
      -0.0023716226246977214 -0.0019177022292146152
      0.00090703075697015916 0.00065955289830785821
      -0.0021405205958201765 -0.00072486270088028117
      -0.0010917630964900787 -0.0019541590888534077
      0.00045156899081024321 0.00054002040559780588
      0.0022391480353225472 -0.0016010439034394876
      -0.0011174760230132437 -0.0014513431825391224
      -0.001654568706844243 0.00011090023763992985 0.0021829173709937335
      -1.2808192632084585e-05 0.0021697119832870169
      -0.00076337168974958383 0.0022633557524947543
      4.0524618451984639e-05 5.452363575911375e-05 0.0014157782376254793
      -0.0019231674831963266 -0.0018932437268725808
      0.0015073124817033645 0.00037344011120402901
      -0.00086869773231547463 -0.00126806387100813
      -0.0013827853288151163 -0.0024490457569583558
      0.00052371653024836163 0.00019584453219989749
      -0.0025647546898701148 -0.0012653929498345172
      0.0024321291893376284 0.00019017588273957724
      -0.00012950321640435746 0.00021116820088001718
      -0.0025063244525518314 0.0023174843074760293 0.002370329014133601
      -0.0003605883098617939 0.00019146263822081034
      0.0022402937356027111 -0.00062038563732430443
      -0.00014608700166401033 -0.0025238414107063888
      0.0012232485752911701 -0.0018069679075870422 0.0014890151317399774
      -0.0015688944252391836 0.0014129163617445123
      -0.0016156236797334014 -0.0022620988399443161
      -0.0020706874204191542 0.0014349816376438445
      -0.0017463602319458989 0.0021817553520688412
      0.00014467103983496668 -0.00011724437719222628
      0.00098614374930735497 -0.0015275009201661319
      -0.001867076517543818 -0.0023027535521105797
      0.00091605626519699885 -0.0011222767672430703
      0.0011281753089802022 -0.0016904753583038565 0.0013949289952613856
      0.00106442992557143 -0.0007496501356351389 -0.00014813288116910145
      0.00055867972138645933 -0.0011382130636704844
      0.00074266752551251742 -0.0017257151472896005
      0.00042910761179272062 0.0005543653317574424
      -0.0016196261622934208 0.0023656706725419438
      -0.0026472180218427696 0.0017510214082441427
      0.00095411764206534673 -0.0012245750051810907
      -0.0010530257460777781 -0.00092042212613176297
      -0.00067466265765235068 0.00010704818597926539
      0.0010023006446581498 0.00089362822762101084
      -0.00082114077068625108 0.00043763426632694119
      -0.0012696551158840514 -0.0010702299481050129
      -0.0023781231246133099 -0.00092834163708741761
      -0.0019854914058702422 -0.0022037923144539676
      0.0019611060891322799 -0.00096000694714143029
      0.00011196816515700764 -0.00076374252945240085
      -0.00032839225501803181 -0.001929834397405237
      0.0018287446192348162 -0.00082427695513385751
      -0.0020010701679932276 0.00010716603880048713
      0.0017302857888025413 0.00065655734005997323 0.00284729901803292
      0.00067232731211271525 -0.0016832470272939144
      -0.001514387657305513 0.0015373522675852598
      -4.5415538217462512e-05 0.00028000124572395533
      0.0020902622020692852 -0.0025254742785649621
      0.00042026548678679578 0.00012735687519620697
      0.00058323608290629565 -0.0013000345345805539
      0.00037581181813535442 -0.0024161475432269461
      -0.001967650361018296 0.00055678240326056787
      -0.0015342430871389911 0.00069746728035934003
      0.0018713212745032671 7.8233042735169917e-05
      -0.00079545278073015434 -0.00048719843414335781
      -0.0007401485991071191 0.00038732647053358362
      -0.0017919654277422441 -2.822283265698236e-05 0.002030208911925581
      -0.00057804213249408273 0.0024130826326508145
      0.00083322861486164585 0.00041152708430462976
      0.0011726618084571495 0.0016937854815366922 0.0026821817733427159
      -0.002372649815008016 0.00060887809652415616
      -0.0010771542054894092 -0.0012977784528230489
      0.0013725184799540087 -0.0017874799722421108
      -0.0020295651909006118 0.00043171092927949718
      0.0015711099558015549 -0.00088276578330318965
      -0.00060271091163487383 0.0027884181821207668
      -0.0018046158419491624 -0.00053240192601176754
      0.0016852918767446159 0.00040891909744424196
      -0.0010942515462468395 1.1939970976709374e-05
      -0.002189279306908749 -0.0016488457368939694
      -0.0025768754283276487 -0.00087646596979633264
      0.0016891899879827998 0.00096266431916599811
      -0.0023820971598546422 0.0025267840746547765
      -0.0009525547533377626 0.0018306019400564143 0.0026751977382824294
      0.00025118629625091332 -0.0020038290344137838
      -0.0012642368374069482 0.0011362097294463443
      0.00086832169680774467 -0.001840729663221835
      0.00089715138692150254 0.00054165910862137047
      0.0016023706044218267 0.0020931153262325865
      -0.00041918667433537204 -0.0022473825435788048
      -0.0020915289691612431 -0.0022664401685757612
      0.00035231798967999496 -0.0025942019114221274
      0.0017155967784358746 0.0011812410358738913 0.0010434531637201058
      0.00014682902282753298 0.0011114384877596035 0.0012125315181064742
      -0.0024387806175433626 -0.0010849065017531885
      -0.0014903516332274251 -0.0026339046564138545
      -0.0012615064915105357 0.0023132710227923036
      -4.6786547094283446e-05 -0.0020328695491453703
      1.4929863795801821e-05 0.0011514678289248849
      -0.0023376659020801051 0.0011408571428960467
      -0.00063070799675336517 -0.00070069664345399636
      -0.0016041583038758332 0.00015448925139656465
      0.0010300513335424343 -0.0014472944876425886 0.001323628011653051
      -0.0010764041047011794 -0.0022629506159233415
      -0.00024534061290654776 0.00088438818731687821
      -0.0023283143566812502 -0.0018063149261500235
      -0.0019952059382135085 0.0018516297735556933
      0.00013635766374020002 -0.0015829014232096074
      0.0021143162594672808 0.0014796886985984374 0.00029157469418602063
      0.0019447098915378171 0.0018602724498977135 -0.0023508687954810303
      0.00078683278708715229 0.0024008926064743555 0.0021291459143695074
      0.001276160379031862 -0.0018739985618796149 -0.000604739206310778
      0.00098740884727438797 -0.0015259363372205647
      0.0013115440185993451 0.002085477498830791 -0.001967201002868727
      -0.0011269504260818155 -0.002385917337610329
      0.00097130975410224913 0.0011899205011601441
      0.00016024763358264677 0.0011057942285393112
      -0.00089200384709577161 0.00109531090567236 0.0020549988230252917
      0.00063554337006395476 -0.00038998403816826191
      -0.0025862147560287213 -0.0022593107757879556
      -0.0018785452185380951 -0.0014019577389222271 0.00187155882251991
      0.00011761614810677059 -0.0016568283970625661
      0.0021269546441275819 -0.00070745320801524471
      0.0014895870610334443 0.00095768565374965522
      -0.0013411692958022177 -0.001750850869197364
      -0.0013344384182289528 0.0021017505814661442 0.0011746384188325587
      -0.0009620999154649725 8.8453342283976067e-05
      -0.0008189076852323946 0.00088765212321386365
      0.0004995125202932562 -9.6072328989281548e-05 0.002104906351805845
      -0.0017452485086531082 -0.00054984078924926621
      -0.00060665681983968845 -0.0013984130460492526
      -5.5336085932235699e-05 0.0013024222435951229
      0.00037837525376210163 -0.00061045608902280388
      -0.00082931587071378792 -0.0015730474708825581
      -0.001306633616064974 -0.0016507396180243468 -0.001343626217674576
      0.00058304256965253714 -0.00015352582217062244
      -1.4058176445042899e-05 0.0003167249646751489
      -0.0014864265398695871 -0.0019865346852032386
      0.0026522294363322436 -0.0017761976411807194 0.0011719881535930032
      0.00031080600944533818 -0.00021293154845242757
      0.0014739448222560779 0.00046674702023408307
      -0.0023119225252263673 0.00046823040892232453
      0.0016242829414999814 0.00011709271271111244
      0.00039165214762851936 0.0012301354323899518
      -0.0010735767023152959 -0.0022948850690378926
      -0.0015230533929755921 -0.00043967853403468235
      0.0022207485631873837 0.0012651920039320485 -0.0005798979165533405
      -0.0009450396514199752 0.00072397870090969423
      -0.0015951947029715732 -0.0022050875802840692
      0.0019075667042860644 5.8180878012308287e-05
      -0.0013257417184023524 0.0015972448232594652
      -0.00025577110803259141 -0.0016856591268645808
      0.00018264032004698243 0.0022555349413822963
      -0.00029757290258742745 0.0020872561859165526
      -0.0020147229454046608 -0.0022610349781727102
      -0.00088570868526565306 -0.0025716682280784403
      -0.00071398853559114395 0.0012802379665481521
      -0.0009298204688925469 0.0021516982248261413 0.001499715565087332
      -0.0012524039960979743 -0.0012806514204541952
      -0.0013490383236483517 -0.0019478602545408526
      0.0026854427998342046 -0.00022208326461771528
      -0.0016040390617968971 0.0027348008500584324
      -0.0011352658295471737 -0.0013275979202123321
      -0.0024653906070867039 0.00023122391851097807
      -0.0010094468834436687 0.0013770432657995461
      -0.0012568655877233487 -0.00051562602327276819
      -0.00086577388220850202 -1.7852030775304615e-05
      0.0015628424230461528 0.00063052858599503439 0.0013791127237831277
      -0.0027210490011831956 -0.00065597952920324243
      -0.0013241483087918454 0.00051312452532686751
      0.0012106789653536744 0.0011464805102228092 0.002395977019054391
      -0.00022932355532596344 0.00097292733192765762
      -0.0009876316875931507 0.0012946503929248592 0.0003301166422880244
      0.0012986359866324847 0.0015101192124586402 0.0021766116475201869
      -0.0029264423703264184 0.0020402716417304615 0.001147770946763507
      0.0013770158308271927 0.002758090112917637 -0.0017865420212267546
      0.0008476614889099996 0.00067866548060906921
      -0.00088334094069178416 0.002438009082610328
      -0.00099320922421821897 -0.00043872549750841511
      0.0015661685585663199 0.00083126905893565869
      0.00044142190631169112 -0.00071579249857236669
      -0.0014564521555307738 0.0021086272958065798 0.0023877516638330324
      -0.0018500281365817896 -0.0018792291560887813
      0.0016547796553944777 0.0010631388733379551 0.00033519877866037087
      -0.00010817451381837889 -3.1362326732362691e-05
      -0.0022030923330078156 0.0020879782478358294 0.0019071603000786128
      -0.0024593077061825981 -0.0025386445500707013
      -0.0014803810480172547 -0.0012615198015920451
      4.5998053363657733e-05 0.0010113919721917966
      -0.0011557900253251724 0.0014022107824960993
      -0.00067641460036755804 0.0025842107766289014
      0.00023569228922168235 2.0666971880058312e-05
      0.0014649285750256236 0.0014823733824863125 -0.0021728841827492748
      0.002498223233323139 -0.00062716685505064787
      -0.0023016526835373721 0.00048630700567127254 0.00197465809015003
      -0.0013359718244039722 0.0013667416855793594
      -0.0024763240818832478 0.0024427153563456898
      0.00098461798668671077 0.00053953814959467291
      0.0010891444531264708 0.0015266046241277514 0.0017616415435629221
      -0.0020876647050089413 0.00026770872938802098
      -0.0015467824165230285 0.0015217421471569526
      -0.00028200889084517453 0.0024788672358124265
      0.00011811612771785951 -0.0025514995891520384
      0.00012567078301740469 -0.0014988253927694371
      0.0014700106467123459 -0.0023168885211390295
      -0.00028463714565908496 0.0019957067034341407
      -0.00032472149939695964 0.0021661639153301077
      -0.002732775810745023 0.0011428903179743206
      -0.00076795534343767431 0.0012029599040773212
      0.00073899590755738894 0.0016190577014601852
      -0.0018323825585391861 -0.0022838151793910682
      0.0012957448926556754 -0.00037195019976232351
      -0.0004966441287816033 -0.0012196844997663862
      0.0011312421767724653 -0.0014251225798383059
      -0.0015890473498686717 -8.0762309645902435e-05
      -0.0013598342427780033 -0.00023329599160474835
      0.0021944935225832502 -0.00031341928430198013
      -0.0021922263295850375 0.00097071599040508046
      -0.0006009535336047023 -0.0010077192213966163
      -0.0016419727606589401 0.00050062523016231519
      -0.00079409760698395627 0.0023268245151482894
      -0.0020468511316547454 0.00092268684687723699
      -0.0014314526758790267 -0.00084419261471443789
      -0.0011969432282164984 0.0018446382604288426 0.0023847812536233358
      0.00055158385214071565 -0.0020539159806931984
      -0.0022647566972810321 -0.0012628191512540651
      0.0011407262941905308 0.0021487395153413848
      -0.00047508851702659301 0.0012692018152679002
      -0.0024660597771764283 -0.0020416373966926577
      0.0022137754427938965 0.0013502825186573373 0.0014719360545103945
      -0.002346543538821019 -0.0015276287578448759
      -0.0025793101753537207 -0.00051924723391230166
      0.0015539785870332219 -0.0024201102895537148 0.0017466410681558149
      0.00063910461728594321 -0.0013580609603487308
      4.2472001109238287e-05 0.00018645721533267363
      0.00084512351475353009 0.0011142599147828771
      -0.0013356634894867308 -0.00036212014051385967
      -0.002296693493948189 0.0019719099116868076 0.0022489214812416091
      -0.000984345732542748 -0.0023646822055203901
      -0.00050097484966022668 0.00046597902949478708
      -0.0010127771509833752 -0.0014790635154697787
      -0.00036178672657465933 -0.0011247278916798088
      0.0021313179137396844 -0.00014050098584243489
      -0.0019379884581442455 0.0020459234548227141
      0.00055426752087562084 0.0015580987702582152
      -0.0016592700571560091 0.00068541150144384015
      -0.0014185491821169468 -0.0011243757311370922
      0.0017037839999180647 0.0017760356005650851 0.00027166019658182066
      -6.6032413410801761e-05 0.0025261432233031028
      -0.0021638512433223623 -0.0020983609924951603
      -0.0018739297276718341 -0.00050356108291084347
      0.00037853657973991824 2.7217982276205877e-05
      -0.0012318122091693302 0.00060718514274289942
      0.0010577498401169922 -0.0024845962472362986 0.0020520563877551054
      0.00013329231160693901 0.001509016650891663 0.0013532937037258799
      -0.0025066093603463417 -0.0013801220405846833
      0.00023637018248354985 0.0024786624211029827
      0.00076784800687863461 -0.0013012221638679673
      0.0024906547033459827 -0.0011043562743765641 -0.001431898215689601
      -0.001147196931286549 -7.5506563896843071e-05
      0.0014521507289266069 0.00018574904917527992
      -0.0010509141955589495 -0.0009302388098564716
      -0.0020139141162951579 -0.0014626053733747875
      0.0017804692234739154 -0.0010704200659513896
      -0.00098626957586166815 -0.0017319874843055476
      0.00078345758797214839 0.00055136955996922411
      0.0013119419476491814 0.00095378771390859142
      -0.0011917524974114041 0.0019075631831270469 0.0021677159175003814
      -0.0017479292680582246 0.0023388175365901915
      -0.0014414672328941158 0.0024868870447708391
      -0.00036368173046095998 -0.0021650288096681865
      0.00036176008094722134 -0.0019873334752539616
      -0.0025534401780306368 -0.0012356369717150067
      0.0015754160199984268 0.00020326737549197061 0.0020704191576747257
      0.0024541206103737821 -0.00011129360633313013
      -0.00025815101940882126 0.0009779901394122081
      -0.0021934174091139975 -0.00015716432145992126
      0.0024343539637844123 -0.00056925812267788402
      -0.0011063926488086289 -0.0010589620961131262
      0.00093560769119807239 0.0020668680765194825 0.0015844745591952055
      -0.00056650202600989918 -0.0020296746044154049
      -0.00057459713064450134 0.0024229139811697362
      -0.00097908102784597805 -0.0014044535760038119
      5.388581863443171e-05 0.00073332943086578219 0.001298762537732338
      0.00094696911404761541 0.0016466375797577881 0.0015725843182727206
      0.0012627209731022745 0.00036626579495774872
      -0.00045439681165526278 -0.00075170349193030416
      -0.0014771357314612963 0.0006438207462016052 0.0020053240151096312
      0.0016367624519122281 0.00016429713666423501
      -0.0016791105269938558 0.0007240285849509458
      -8.9230933306759972e-05 0.0020985298570541612
      -0.00093918047098428506 -0.00032793165882070009
      0.0015443748013422263 -0.00077460306445195431
      -0.00094644377074727887 0.0024800196484244612
      -0.0013037593140479181 -0.0004761518513332963
      -0.0015264765861654882 0.0010522199353390413
      -0.0025152948663925388 0.0007384811712924579 0.0014683991932584002
      0.0022489098402212263 -0.00061216842800474814
      0.00073480674092816676 -0.0020921404743633855
      0.0017519260197886527 0.0023792654843926317 0.0013762407255399945
      0.00174619775539258 -0.00029916122920491741
      -3.0168951901389956e-05 0.00013930016051208713
      -0.0024545563503154851 0.0015346323445638969 0.0022455439994093561
      -0.00031973411084662004 -0.0023270237951949733
      -9.3780133005073101e-05 0.0015382390209741025
      -0.001141866352384177 -0.00021339647616595503
      0.0012701827318841003 0.0024734774443696617 -0.0018911428880156952
      0.002409949030443218 0.00032248439323025722 0.0016721258845070407
      7.2651704104675219e-05 0.00055528402105477269
      0.00092241838286681154 0.0017547111551820601
      -0.0022266706500697299 -0.001643041611877406
      0.00018033468382288182 -0.00020843847442644564
      -0.0009186068070018721 -0.00086621657482981054
      -0.00081895492432965339 -0.0022049529798704726
      0.001335261292440076 0.00016325020633279231 -0.0021770229739273995
      7.9891202548756045e-05 -0.00089293859437049197
      0.0014952653041044913 0.00083427153992725767 0.0018048090245484278
      -0.001109313531463124 0.0022661017572407974 4.3245556051478025e-05
      0.001329547281121004 -0.0021025999124509821 0.0013876304967442748
      -0.00086437040254888707 0.0017546767166741284
      -1.0196611202178757e-05 0.0020805180527656121
      -0.0021240051155563427 -0.00033889322781723561
      -0.0014053008882247222 -0.0010435218573196759
      -0.0002812886792807872 -0.001236514498223817 0.001460849031266832
      0.001172191835563808 -0.0012737935530180628
      -0.00032290518144118354 -0.001648449815583297
      -0.0013144913423770244 0.0015797121248415252
      -0.0014503311266870185 0.00052101370597676118
      -0.0010419710774156651 0.0011597451503213055
      -0.00032361234055518283 0.00014039471577146864
      0.0024231037317322575 0.0015250651063357316 -0.0021825908859228189
      0.0015280757139704379 0.00030895857881113007
      0.00044671431167336937 -0.0012095978185163077
      0.0012532654725769408 -0.00068651096035317598
      -0.002427288484976513 0.0020177526800983065 0.0011109269916011546
      -0.0023316644181658277 -0.0018437385686203536
      -0.0010377288609433207 -0.00079347525171873307
      -0.00029633352243702536 2.4545276683399197e-05
      -0.0024814997153981486 -0.00098593814293567047
      0.00047108509374831542 -0.0001410981443394489
      -7.436286317290997e-05 -0.0016694075822461763
      -0.0011760033743902774 0.0015343944670439332
      0.00089162463454529883 -0.00085057887190847115
      -0.0013233141334255719 0.00011657989252063903 0.001677858158773918
      0.0013177536662581869 -0.0018789048251350025 0.0019252241707339976
      -0.0011632104245189155 -0.00070607329059923076
      0.0023459798916964907 0.00034663165399175178 0.002117611987390724
      -0.0010372845026940479 -0.00082038984669447574
      -0.0011248331859996319 -0.0014345945581050522
      -0.00082234402191242199 0.00093508217411096138
      -0.001438791067790912 -0.0012009279951206134 -0.00189113343070082
      0.0020295048130297708 0.00091404616238633307 0.0013770455659699375
      0.00026179926835170675 0.001251633720667393 -0.0025572184268598773
      0.0021316231274732147 -0.0017691190938068861 0.0019249163083295308
      -0.00037769086036333431 0.0023876478479126348
      -0.0004808394715263465 -0.0010189572123142279
      0.0017052339082915119 -0.00045050015421954501
      -0.00066459658968212262 -0.0018413322417457757
      0.0012613944070667183 0.0012632941157503916 -0.0014124936597683718
      -0.00089613520698742562 0.00060413164084492882
      -0.0001965035564847717 0.001016082989671916 -0.002407005343189053
      -0.0022609067757711314 -0.0020269498730159032
      0.0018859647255618035 0.0011267463584633795 -0.0012858599667850638
      0.0016713688677533758 0.00034171742673265031
      -0.0024029998431904323 -0.00096049734375318785
      -0.00042551140955347707 0.0025046342990979512
      0.0016783770778336414 0.00078994315564491708 0.0016290273196520586
      -0.0020087882764055964 -0.0016401430563460352
      0.0012355150646093638 0.00041181915109193433
      -0.00029269735946615917 0.0011485697639086623
      -0.0020122025892170196 -0.002072896863104422
      -0.0020750501169170626 0.0010093765158756996
      -0.0011585408728291031 0.002001234520118399 0.0020586124039562448
      2.9702260988817168e-05 -0.00045384694992691501
      0.0020804423054707668 -0.0022518118684319529
      -0.0015908465223185165 0.00091401783287513869
      -0.00014087573613244853 0.0025178635237086871
      -0.0015199617303061285 -0.000842164015263614
      8.5963523004954981e-05 0.0023215966180070899 0.0019211069649259136
      -0.0017661973050589314 0.0001520849952870717 0.0013820719134878265
      -0.00080884932174858583 0.00024041297531331512
      0.0017342704435893697 0.0023893009711151527 0.0023316486265283075
      -0.0025018547993937981 -0.0022786890425255855
      0.00040874283369646757 0.0021860625352684796
      -0.00033740553716142378 -0.00018511491597068499
      -0.001816919665133968 -0.0010029896518547615 0.0020630881294554713
      -0.00019511739622069674 -0.0015259798638421159
      0.00098233502290701025 0.0015758939848934878
      -0.0001020386764626751 0.0023487006353101075
      -9.7470051926250531e-05 -0.0011633830248458427
      0.00071215118789796515 -2.4314014358509574e-05
      -0.0015641060324742056 0.0021755676715476176
      -0.00061916091526108665 0.0015090325222826991
      -0.0010333204742517255 -0.0016503136715924442
      0.0016689392836078175 -0.001606842852224224 -0.0024106649452935009
      -0.0012659648427497975 0.0020602601999719326
      -0.0019883357501018504 0.00020844527997869786
      0.0022036150030782064 -0.00088362695702547686
      0.0011331568693295968 -0.0012024805787642652 0.0010833194799334566
      0.0023382365655958935 0.0005116539827966167 0.00023542631195958984
      0.00023471684311650824 0.0010413264733754625
      -0.0014899343009217678 0.0013227397469034699
      0.00060509600043753516 9.6656919517429468e-06
      0.0015921621588830086 0.00025547347639614116
      -0.00015550021444752222 0.0012054542845117944
      -0.00095831635969185363 0.001148895658851723 0.0024901501415812992
      0.00019337027925947264 -0.00062211053737503178
      -0.0025236714721288082 -0.00022322898162581911
      0.00094709822541409186 0.00097068561360191786
      -0.00082865082951601274 -0.0021667452359576053
      -0.0015587387064370842 0.00088465264090919658
      -0.0010779697101927421 -0.00072187597768393194
      -0.0016054686257832599 0.0020209090383750006
      0.00018853689518509039 -0.0010231516670711992
      0.00017099728820990732 -0.002000284072644418
      0.00064000171657261934 0.00016399830076330049
      -5.4402086059057184e-05 0.0018729036417300723
      -0.002602752522357781 3.7576275984017785e-05
      -0.0019272865374942308 0.0010271071783960557
      -0.0020620039735158458 0.0014352827284977528
      0.00079867339495599159 0.0013828610138805447
      0.00095160144448181035 -0.0013741298137122679
      0.0021974773615297274 0.0003560788591768196
      -0.00066593160827454958 0.00082225607470576636
      0.0019976005049075112 -0.0010983412980940183
      0.00079542047286282921 -0.00011062825333097923
      0.0026005701845321647 -0.00017306168437354429
      6.0887151197949168e-05 0.0012609094912331331
      -0.00095675207197837796 0.00059823768060447192
      -0.0014753484929815742 -0.00046425503541130074
      0.0018302529289644502 0.0018274132199123472 0.0018046187501007682
      0.0024020787193623442 -0.00013441200495526757
      -0.0013062343995204468 -0.0013666440456350775
      -0.0021124699090876095 0.00050692909181929125
      -0.0018594317850481202 0.00055673231858712022
      -0.00098706064361699791 -0.0022867416466000445
      0.0011258666284105353 -0.0014333094731066962 0.0007518367911432544
      0.0012901022892967595 0.00055663094846503493
      0.00074131505119219327 0.00050784873229102652
      -0.0014331571709396229 -0.001543740153461183 0.0022109606494683902
      0.0010666236360184025 -0.0014834960940666559 0.0014363143055977426
      0.001392369659503085 0.00046877913736210726 0.00042987526865400971
      -0.00053886662790430899 0.0016508688094830839
      0.00042290509296556537 0.00084493920053704504
      -0.00077011026929990319 0.00084793023112072542
      -0.0021772360858676012 0.00061051537726491652
      -0.0014661096866212086 -0.001774047244421715
      -0.0022053593383104132 4.7894187843006694e-06
      0.0016287842876917858 0.0016767201311558789
      -0.00065083398163813002 0.0009018993050930016
      0.00031349633314703152 0.00093766422124337892 0.001975271581277476
      -0.00028919609842576187 0.0011444969838403085
      0.00058926951014309922 0.00073321607195635219
      -0.00077716584845973781 -0.0018495689427658146
      0.0019628003863483862 -0.0022787819399448408 0.0018283579425997869
      -0.0022907861150378442 0.00030530138880137912
      0.0018503379021893561 -0.0024562186549541413
      -0.0011838822604070571 0.00095077091792158453
      0.00098654176891203849 0.0001025939838672784
      -0.0018153435727086213 0.0024478749055700708
      -0.0013823167831109305 -0.0012153559146723012
      7.2441251423405255e-05 0.001321696651244572 0.0013055688292031963
      -0.0022178552577706238 0.0003067279588428561 0.0026158655507953726
      -0.0022682377218739133 -0.0014726316589922723
      -0.00038280797581297457 -0.0022449449417732141
      0.0014864426662689928 0.0013439731825773185 -0.0011582459754766732
      0.00038393387917287148 -0.0016899318716928581
      0.0013417908661796322 -0.00097930662303042379
      -0.001716062076358428 -0.0012417318090292549 0.0019062419674057071
      0.00048737900349813909 -0.0011052575837535155 0.002353613506406887
      -0.002380976873550216 -0.00018443471711096379
      0.0021279240929225865 0.0021188934929064732 -0.0022642116509965157
      -0.00028146162232525122 0.001721242126058575
      0.00045797498378719466 -0.0017205900016446676
      -0.0014545711535586907 -0.0006183830677146412
      -0.0007825534083314436 0.00078520809598847771
      -0.0018797165881235622 0.0018388583069281566
      -0.00092906581485520173 -0.0021958062918340294
      -0.00013280795852512668 0.0018151871832345291
      -0.0015267650449837362 -0.0024102802195158082
      0.0012926231269181484 0.0017491415851562696 0.00151252541495742
      -0.0011812659297507761 -0.0023021697277304885
      -0.0001205993363733873 0.00076875589599538746
      -0.00037697907626936354 -0.00073167802574093525
      -0.001164616640739372 -0.0022398069979535857
      -0.00010884989760433362 -0.0017851812567111682
      0.00013167277700927316 0.0017826811152396786 0.0015485556607405765
      0.0019613091057322212 0.0020575610765562807 0.00062398217017577487
      -0.0025784920272894671 -0.0014561855906251608
      0.00028785345150918689 -0.0019653804388095474
      0.0014239450773204548 -0.0022259288895171868
      -0.00041476607599582894 0.0017857352984811735
      -0.0023822077352201928 -0.0013739077347898034
      -0.0021833072766807961 0.0025360698871394497
      -0.00026214417555936524 0.00017594466465525838
      0.0014184428793935281 0.0025033700418833054 0.00059329730809928503
      -0.0024232909580813289 -9.8526370778945786e-06
      -0.0021130757823219371 -0.00043859206284531556
      -0.0015915189515687343 -0.0021656547386723467
      -4.0622222601552424e-05 0.001090426513544022 0.0002787644445093469
      0.0023949124405510339 0.00029406380654973358
      -0.00060845565368443551 0.0023618922761447897
      0.0014279646005436757 -0.00082118076216016183
      0.00022251270640099652 -0.00024457736441528977
      -0.0013015018993245253 -0.0023842745284145014
      -8.5660732088227256e-05 -0.0014368777506213487
      -0.0004288070907315184 -0.00093399347528132551
      -0.00095815993299637817 -0.00027702287203834527
      -0.0013919522037444975 0.00055981973741046844
      0.0012592437520365339 0.00039861550429308885 0.0014830090444329723
      0.0010275557454611762 -0.0020087718358453841 -0.002457251021830721
      -0.00021701284509745988 -0.00056554801757875781
      0.00030908211060486996 0.0022150317755591582
      -0.0020118046087417244 0.00016549863984914438
      -0.002367516361588295 0.00011888472324001506
      -0.0020341658220247002 0.00016010836094964136
      -0.0016811283410240972 -0.0011071188084136271
      -0.0018530738513712994 -0.0022470678961867521
      -0.0011432373288089849 0.0022966250661984682 0.0013686642263637553
      0.00018070739202528211 -0.0019172996233089159
      -0.00090103876252913462 0.0013754064848330513
      -3.0120130217046025e-05 -0.002284506979066442
      1.0552773176240109e-05 0.0024962663274669082 0.0004293779550564971
      -0.0024050878548078514 -0.0011975223429181957
      0.0018940133511852141 0.0023489037994633751
      -0.00026549862649916225 0.0012382135856688799
      -0.00060674249351113654 0.00067845748038211195
      0.00018147876717580436 -0.00013723543711872805
      0.00071181159099982332 -0.0025018075762018514
      -0.0022819829298439862 -0.0019499373599970932
      -0.0006793610770833258 -0.0018006463499556338
      6.4336688518092395e-05 -0.00053179262666446902
      -0.0016266426424359427 0.00061729614329622323
      0.00011581170067967148 0.0025165765818013154
      -0.00063373754639896134 0.00032612162699349615
      -0.00039012586322864754 -0.00013437678183324893
      0.0021878492304061199 -0.0019371646327445665 0.0003627785785558835
      -0.00049652650882623436 -0.0001185343162762797
      -0.0024682784084280348 -0.0012979249181039169
      -0.0013376216297522026 0.00018498776879161149
      0.0024354028840645105 0.002106718635939715 0.0013054257406991225
      0.00013231202878931006 -0.00035357687443542249
      0.00048208500766831552 -0.00050787452737550802
      -0.0022377648498127542 0.00078083042104011167
      -0.0019976944284265932 0.0019798782457698715
      -0.00041815145963644296 0.0010521405290128865
      -0.00072106966735756056 -0.00027237983307437007
      0.0019284291844999255 -0.0001666554232293389
      -0.0016789117498151082 0.0020113297671314765
      0.00076614884610414608 -0.00076667213445274064
      0.00021592752835153587 0.0020487599718050785 0.0021642768112344916
      0.0012583495522118112 -0.0009528911245059279 0.0024396299104872269
      -0.0018037646977883128 -0.0021390324922971955
      -0.0012044727959224576 0.0012710011585058039
      0.00084237466328999412 0.00017445973596247601
      -0.0022914435232510126 0.0013792733268538481
      -0.0013445701536480468 -0.00099165080616318282
      -0.0010252649791211695 -0.0023252024881278404
      0.00034541563010368967 -0.00014547700193020041
      0.0016475745464659454 0.000725662121568577 0.0023421187928533609
      0.0010555303836168764 0.0014096095365583351 0.002114874114819117
      -0.0015526974840900788 0.0013327742832152717
      -0.0025030567369639959 0.0023537416697053982
      -0.00029055829821905482 -0.00057593127736993584
      -0.0013369638703159107 0.0019089568334188453
      -0.0017503318598882643 -0.0022660953678274639
      0.00088802945879015477 -0.001220423025934492
      -0.0011311786800710078 0.002147934612185013 0.0020900107153731455
      -0.00077288921890673011 -0.0017858955403934613
      0.00014322399452097436 0.0024582038701369624
      -0.00035205619793809658 0.00094433078743772218
      -0.0017696689562298857 0.00048688490438523232
      0.0024671819115436111 -0.0019783877417453338
      -0.00039032341780351854 0.0023473872991196972
      -0.00073188180438574755 -0.0015428372012356033
      -0.0021651421108988224 0.0002146187588515422 0.0017383685717860088
      0.00083475800318834629 0.0016955970035531466
      -0.0019474320287039652 -0.0023745644618927385
      -0.0024045434905608045 0.0020242958552051738
      -0.0016535649944979173 0.0022515769280976195
      -0.0022821587819305614 0.0014674907443746864
      0.00096153850231216708 0.0016441875043471353
      -0.00022128687898473226 0.00058294967992311437
      0.0004014624221164323 0.0012733482564120928 0.0015873314018848902
      0.0013779173977255417 -0.00034799572963562701 0.002506027867121975
      0.0014638641198351458 0.00081803235508839923
      0.00093086133484131424 -0.0018918569964522696
      -0.0018756813898104558 0.00024719649401662821
      0.00069733476809816838 -0.00041047907213923745
      -0.00077661275895082849 0.00070745268196984671
      0.00060869023417614479 -0.0022873373615675745
      0.0021581972292815835 0.0024508645993001669 -0.0016561113050128607
      0.0010035985829378333 8.1703720706761292e-05
      -0.0019176041416294367 0.0024585316438366363
      4.9535751934656785e-05 -0.0014539875971365838
      0.0019253610400030933 0.0006905811225368779 -0.0019125537258740061
      0.00099211302618200511 0.00050801726227337309
      0.00072705446151314626 8.750868580839742e-05
      -0.0019480771778339525 0.0024055644931465837
      -0.0007818576897744762 0.00047135845319667551
      0.00038785625459655598 0.0014578728426691133 0.0005945392782885626
      -0.00097930166634538655 0.0002049626477133923
      -0.00096093613638088588 0.0023627119997782059
      -0.00072994920446939175 0.0019234166037782354
      0.0022770156919210641 -0.0010632731374414178 0.0025302247970505893
      -0.0015953425189791706 -0.0021932430804140917
      -0.0008076542329580696 0.0017785751117982392
      -0.0011904773870737675 0.0019957047282664255
      -0.0018162536520730096 -0.0008114988890313311 0.002203072784884868
      0.00088633557628334703 -0.0004860707293197474
      -0.0014413878332309215 0.00058789068113626662
      0.0020081596008054274 0.00092457653983045853
      -0.0024078858260276328 -0.0010449830432969424
      -0.00043843080022454561 0.00021875815899575192
      -0.0015992856290120022 -0.002115044617146844
      -0.00072694918322632133 -0.00071508265441927107
      0.00059708505988568866 0.0012415559798214684
      -0.0015418414328958031 -0.00065733778564617195
      0.0013167662126696282 0.00039913517717440444
      -0.00017838557890819336 0.00041230709016833932
      -0.0015910064102801712 -0.00053332485787337873
      0.0012214456884506832 0.00028805306782248193
      -0.0023970218737346138 0.0023389194980346492
      -0.0013004611533888174 -0.00050615525434609095
      -0.0021472955874481726 0.00044810974402181587
      0.0013030582680488023 0.0019583630290614541 -0.0011619411946025831
      0.00064554164547118119 0.0011254067656120586
      -0.0018163640154742985 -0.00050456291278852918
      0.0020526397677752537 0.0016049210066932885 0.001309850683266129
      -0.0020415496405611312 -0.0017803969982401475
      0.00074100406392412551 -0.00082437664626402215
      0.00089809220792818494 0.0013421245448896552 0.0020637445173381057
      0.00086229818494644353 0.0024009120297708076
      -0.0013588261717373826 0.00040065156872828422
      0.0024787694276847813 -0.000132356078162229 -0.0022231560780724474
      -0.00048421095320006532 -9.9267481399862597e-05
      0.0013552415830083515 0.0022426335121382254 0.0012912352596488772
      -0.0010599467800361381 -0.0023027547573928843
      0.0012979308167313786 -9.0086686450632588e-05
      0.00090316388948050023 0.0017146425639824779 0.0024234828999597936
      0.0011276431603710751 0.0023542599003364625 -0.0018224354407016428
      0.0006379381896600534 -0.0004548383523105979
      -0.0017904393972247516 -0.00051237598861593296
      0.0014103550723808958 -0.0012520213837183367
      -0.0017751366994576787 -0.0021777072629169604
      0.00053044867391029594 -8.0569770055013171e-05
      -0.0024864618801235527 -0.0024096415390908671
      0.0020347155842395936 0.0022316468074166339 0.00057966250703999863
      0.00080860177014445249 0.0015622005288282092
      -0.0024989685705944947 -0.00047959911267635966
      -0.0017706094554525555 0.0012558547354955764
      -0.0022826929664652835 -0.00028749698606354401
      4.9419158631322517e-05 -0.00033772463524065041
      -0.0024776038122371162 0.0024115357709319925
      -0.00096974469172589697 0.0010092094116836007
      0.00012355790972359956 0.0015414160175741675
      -0.00059486719072941805 -0.00010798487183358065
      0.00083012929923077892 -2.7395614354638669e-05
      -0.0010710369344994143 -0.0010193602365912318
      0.00088179338865295028 0.0018457696874891914
